{"learner":{"attributes":{"scikit_learn":"{\"_estimator_type\": \"classifier\"}"},"feature_names":[],"feature_types":[],"gradient_booster":{"model":{"gbtree_model_param":{"num_parallel_tree":"1","num_trees":"200"},"iteration_indptr":[0,1,2,3,4,5,6,7,8,9,10,11,12,13,14,15,16,17,18,19,20,21,22,23,24,25,26,27,28,29,30,31,32,33,34,35,36,37,38,39,40,41,42,43,44,45,46,47,48,49,50,51,52,53,54,55,56,57,58,59,60,61,62,63,64,65,66,67,68,69,70,71,72,73,74,75,76,77,78,79,80,81,82,83,84,85,86,87,88,89,90,91,92,93,94,95,96,97,98,99,100,101,102,103,104,105,106,107,108,109,110,111,112,113,114,115,116,117,118,119,120,121,122,123,124,125,126,127,128,129,130,131,132,133,134,135,136,137,138,139,140,141,142,143,144,145,146,147,148,149,150,151,152,153,154,155,156,157,158,159,160,161,162,163,164,165,166,167,168,169,170,171,172,173,174,175,176,177,178,179,180,181,182,183,184,185,186,187,188,189,190,191,192,193,194,195,196,197,198,199,200],"tree_info":[0,0,0,0,0,0,0,0,0,0,0,0,0,0,0,0,0,0,0,0,0,0,0,0,0,0,0,0,0,0,0,0,0,0,0,0,0,0,0,0,0,0,0,0,0,0,0,0,0,0,0,0,0,0,0,0,0,0,0,0,0,0,0,0,0,0,0,0,0,0,0,0,0,0,0,0,0,0,0,0,0,0,0,0,0,0,0,0,0,0,0,0,0,0,0,0,0,0,0,0,0,0,0,0,0,0,0,0,0,0,0,0,0,0,0,0,0,0,0,0,0,0,0,0,0,0,0,0,0,0,0,0,0,0,0,0,0,0,0,0,0,0,0,0,0,0,0,0,0,0,0,0,0,0,0,0,0,0,0,0,0,0,0,0,0,0,0,0,0,0,0,0,0,0,0,0,0,0,0,0,0,0,0,0,0,0,0,0,0,0,0,0,0,0,0,0,0,0,0,0],"trees":[{"base_weights":[-7.971387E-5,1.5587187E0,-1.999807E-1,1.0307263E0,1.8478819E0,1.5599654E0,7.1151805E-1,8.699467E-1,1.999221E-1,1.47112E-1,1.9002274E-1,2.3940383E-2,1.09293066E-1,4.9127158E-2,1.985374E-1],"categories":[],"categories_nodes":[],"categories_segments":[],"categories_sizes":[],"default_left":[0,0,0,0,0,0,0,0,0,0,0,0,0,0,0],"id":0,"left_children":[1,3,-1,5,7,9,11,13,-1,-1,-1,-1,-1,-1,-1],"loss_changes":[3.5050258E4,9.628164E2,0E0,3.770144E2,6.023213E2,2.2636108E1,2.5147668E2,2.3080817E2,0E0,0E0,0E0,0E0,0E0,0E0,0E0],"parents":[2147483647,0,0,1,1,3,3,4,4,5,5,6,6,7,7],"right_children":[2,4,-1,6,8,10,12,14,-1,-1,-1,-1,-1,-1,-1],"split_conditions":[-4.1785595E-1,-5.6917787E-1,-1.999807E-1,-6.9030225E-1,-6.900223E-1,4.5568135E-1,-5.0842583E-1,-6.2282264E-1,1.999221E-1,1.47112E-1,1.9002274E-1,2.3940383E-2,1.09293066E-1,4.9127158E-2,1.985374E-1],"split_indices":[0,2,0,4,1,1,25,3,0,0,0,0,0,0,0],"split_type":[0,0,0,0,0,0,0,0,0,0,0,0,0,0,0],"sum_hessian":[1.124225E4,6.31775E3,4.9245E3,2.23725E3,4.0805E3,8.4025E2,1.397E3,5.4775E2,3.53275E3,6.705E2,1.6975E2,6.25E2,7.72E2,4.1E2,1.3775E2],"tree_param":{"num_deleted":"0","num_feature":"30","num_nodes":"15","size_leaf_vector":"1"}},{"base_weights":[-4.0090457E-3,1.2583936E0,-1.4571501E0,5.35746E-1,1.6515788E0,-1.6432172E0,9.175241E-1,1.4180168E0,-5.574253E-3,1.02114E0,1.8232995E-1,3.8323972E-1,-1.7849834E0,4.4279882E-1,1.8151256E-1,1.4636283E-1,-1.1816424E-1,-5.405273E-2,1.0080462E-1,6.0797673E-2,1.8122475E-1,-1.7661725E-1,4.3217987E-2,-1.7964992E-1,1.7048174E-1,-1.7815852E-1,5.0962638E-2],"categories":[],"categories_nodes":[],"categories_segments":[],"categories_sizes":[],"default_left":[0,0,0,0,0,0,0,0,0,0,0,0,0,0,0,0,0,0,0,0,0,0,0,0,0,0,0],"id":1,"left_children":[1,3,5,7,9,11,13,15,17,19,-1,21,23,25,-1,-1,-1,-1,-1,-1,-1,-1,-1,-1,-1,-1,-1],"loss_changes":[2.0551604E4,1.7025088E3,2.302708E3,1.00960815E3,4.1841016E2,1.3882754E3,1.6072382E2,9.704321E1,7.114816E2,2.7127502E2,0E0,3.407032E1,1.8448633E2,3.7960876E1,0E0,0E0,0E0,0E0,0E0,0E0,0E0,0E0,0E0,0E0,0E0,0E0,0E0],"parents":[2147483647,0,0,1,1,2,2,3,3,4,4,5,5,6,6,7,7,8,8,9,9,11,11,12,12,13,13],"right_children":[2,4,6,8,10,12,14,16,18,20,-1,22,24,26,-1,-1,-1,-1,-1,-1,-1,-1,-1,-1,-1,-1,-1],"split_conditions":[-3.2936934E-1,-4.738209E-2,-6.8024965E-4,-6.9030225E-1,-6.2282264E-1,-7.696582E-1,-7.696582E-1,3.792072E-1,4.0442094E-1,-5.6917787E-1,1.8232995E-1,-9.540723E-1,3.4283388E-1,-9.540723E-1,1.8151256E-1,1.4636283E-1,-1.1816424E-1,-5.405273E-2,1.0080462E-1,6.0797673E-2,1.8122475E-1,-1.7661725E-1,4.3217987E-2,-1.7964992E-1,1.7048174E-1,-1.7815852E-1,5.0962638E-2],"split_indices":[4,1,1,4,3,5,5,5,3,2,0,5,2,5,0,0,0,0,0,0,0,0,0,0,0,0,0],"split_type":[0,0,0,0,0,0,0,0,0,0,0,0,0,0,0,0,0,0,0,0,0,0,0,0,0,0,0],"sum_hessian":[1.1201146E4,5.9940264E3,5.20712E3,2.1129429E3,3.8810835E3,4.8290493E3,3.780711E2,8.028303E2,1.3101125E3,8.3232214E2,3.0487612E3,3.1562906E2,4.51342E3,2.4826273E2,1.2980838E2,7.894168E2,1.3413463E1,8.578411E2,4.5227145E2,5.4792944E2,2.843927E2,6.2454505E0,3.093836E2,4.499059E3,1.4360914E1,6.492648E0,2.4177007E2],"tree_param":{"num_deleted":"0","num_feature":"30","num_nodes":"27","size_leaf_vector":"1"}},{"base_weights":[6.318498E-3,1.3162713E0,-1.6928793E0,8.0928594E-1,1.634917E0,-1.7742483E-1,-1.6838694E-1,-2.0623878E-1,9.036719E-1,1.0300379E0,1.6837431E0,1.5832753E-1,4.326354E-2,1.2156804E-1,-1.8194625E-1,1.687247E-1,-8.907549E-3],"categories":[],"categories_nodes":[],"categories_segments":[],"categories_sizes":[],"default_left":[0,0,0,0,0,0,0,0,0,0,0,0,0,0,0,0,0],"id":2,"left_children":[1,3,5,7,9,-1,-1,-1,11,13,15,-1,-1,-1,-1,-1,-1],"loss_changes":[2.4381703E4,9.9791113E2,5.0878906E-1,6.494374E2,1.1041113E2,0E0,0E0,0E0,7.4001526E2,1.5360419E2,2.196582E1,0E0,0E0,0E0,0E0,0E0,0E0],"parents":[2147483647,0,0,1,1,2,2,3,3,4,4,8,8,9,9,10,10],"right_children":[2,4,6,8,10,-1,-1,-1,12,14,16,-1,-1,-1,-1,-1,-1],"split_conditions":[-4.1785595E-1,-7.513314E-1,-3.2936934E-1,-9.540723E-1,-5.618774E-1,-1.7742483E-1,-1.6838694E-1,-2.0623878E-1,-6.166804E-1,5.9632454E-2,2.9996562E0,1.5832753E-1,4.326354E-2,1.2156804E-1,-1.8194625E-1,1.687247E-1,-8.907549E-3],"split_indices":[0,5,4,5,1,0,0,0,0,5,17,0,0,0,0,0,0],"split_type":[0,0,0,0,0,0,0,0,0,0,0,0,0,0,0,0,0],"sum_hessian":[1.095179E4,6.1843496E3,4.76744E3,2.3881667E3,3.796183E3,4.557361E2,4.3117036E3,7.533277E1,2.312834E3,2.851922E2,3.510991E3,9.458363E2,1.3669976E3,2.6828693E2,1.6905285E1,3.5041138E3,6.8771486E0],"tree_param":{"num_deleted":"0","num_feature":"30","num_nodes":"17","size_leaf_vector":"1"}},{"base_weights":[3.9054563E-3,1.2132756E0,-1.5849295E-1,7.2887284E-1,1.5209917E0,-1.8575357E-1,8.11926E-1,9.040389E-1,1.5726885E0,1.4627175E-1,3.7317153E-2,1.087904E-1,-1.5894121E-1,1.5763456E-1,-9.5905E-3],"categories":[],"categories_nodes":[],"categories_segments":[],"categories_sizes":[],"default_left":[0,0,0,0,0,0,0,0,0,0,0,0,0,0,0],"id":3,"left_children":[1,3,-1,5,7,-1,9,11,13,-1,-1,-1,-1,-1,-1],"loss_changes":[2.0375932E4,8.9639355E2,0E0,5.043694E2,1.15987305E2,0E0,6.472903E2,1.3328954E2,2.086914E1,0E0,0E0,0E0,0E0,0E0,0E0],"parents":[2147483647,0,0,1,1,3,3,4,4,6,6,7,7,8,8],"right_children":[2,4,-1,6,8,-1,10,12,14,-1,-1,-1,-1,-1,-1],"split_conditions":[-4.1785595E-1,-7.513314E-1,-1.5849295E-1,-9.540723E-1,-5.618774E-1,-1.8575357E-1,-6.166804E-1,4.6518575E-3,2.9996562E0,1.4627175E-1,3.7317153E-2,1.087904E-1,-1.5894121E-1,1.5763456E-1,-9.5905E-3],"split_indices":[0,5,0,5,1,0,0,5,17,0,0,0,0,0,0],"split_type":[0,0,0,0,0,0,0,0,0,0,0,0,0,0,0],"sum_hessian":[1.0602238E4,6.0201387E3,4.5820996E3,2.3399653E3,3.6801733E3,7.213705E1,2.2678284E3,2.859625E2,3.3942107E3,9.1230286E2,1.3555254E3,2.6684897E2,1.9113537E1,3.386843E3,7.3677874E0],"tree_param":{"num_deleted":"0","num_feature":"30","num_nodes":"15","size_leaf_vector":"1"}},{"base_weights":[-4.661225E-3,1.1296729E0,-1.4993517E-1,6.670284E-1,1.4345354E0,-1.706638E-1,7.4606353E-1,1.0311762E0,1.4963747E0,1.3786091E-1,3.3097636E-2,1.1431301E-1,-1.06303774E-1,1.4991991E-1,7.921761E-2],"categories":[],"categories_nodes":[],"categories_segments":[],"categories_sizes":[],"default_left":[0,0,0,0,0,0,0,0,0,0,0,0,0,0,0],"id":4,"left_children":[1,3,-1,5,7,-1,9,11,13,-1,-1,-1,-1,-1,-1],"loss_changes":[1.7330146E4,8.1867285E2,0E0,4.3466406E2,8.5811035E1,0E0,5.867372E2,1.1111609E2,4.847168E0,0E0,0E0,0E0,0E0,0E0,0E0],"parents":[2147483647,0,0,1,1,3,3,4,4,6,6,7,7,8,8],"right_children":[2,4,-1,6,8,-1,10,12,14,-1,-1,-1,-1,-1,-1],"split_conditions":[-4.1785595E-1,-7.513314E-1,-1.4993517E-1,-9.540723E-1,-6.2282264E-1,-1.706638E-1,-6.166804E-1,9.055904E-2,2.2709336E0,1.3786091E-1,3.3097636E-2,1.1431301E-1,-1.06303774E-1,1.4991991E-1,7.921761E-2],"split_indices":[0,5,0,5,3,0,0,5,17,0,0,0,0,0,0],"split_type":[0,0,0,0,0,0,0,0,0,0,0,0,0,0,0],"sum_hessian":[1.0219391E4,5.8102124E3,4.409178E3,2.309149E3,3.5010637E3,7.374571E1,2.235403E3,4.677498E2,3.033314E3,8.847792E2,1.3506239E3,4.4444452E2,2.3305264E1,3.020072E3,1.3241933E1],"tree_param":{"num_deleted":"0","num_feature":"30","num_nodes":"15","size_leaf_vector":"1"}},{"base_weights":[-5.173708E-3,1.0718378E0,-1.4026604E0,6.632335E-1,1.3136882E0,-1.4247782E0,1.0470537E0,1.0160686E0,4.643347E-1,6.316267E-1,1.433464E-1,-1.4297788E0,6.424831E-1,1.1602522E-1,1.3809586E-1,9.21332E-2,1.3709603E-1,8.002822E-3,7.827815E-2,3.5523396E-2,1.5021805E-1,-1.4327715E-1,4.6975385E-2,-8.4123634E-2,1.0649879E-1,-9.236684E-2,4.7321413E-2],"categories":[],"categories_nodes":[],"categories_segments":[],"categories_sizes":[],"default_left":[0,0,0,0,0,0,0,0,0,0,0,0,0,0,0,0,0,0,0,0,0,0,0,0,0,0,0],"id":5,"left_children":[1,3,5,7,9,11,13,15,17,19,-1,21,23,25,-1,-1,-1,-1,-1,-1,-1,-1,-1,-1,-1,-1,-1],"loss_changes":[1.4697593E4,5.441196E2,2.317793E2,1.4357391E2,2.8203174E2,4.4467773E1,1.1841789E1,2.3586426E1,1.608024E2,1.2437735E2,0E0,2.456543E1,7.7009606E0,4.627183E0,0E0,0E0,0E0,0E0,0E0,0E0,0E0,0E0,0E0,0E0,0E0,0E0,0E0],"parents":[2147483647,0,0,1,1,2,2,3,3,4,4,5,5,6,6,7,7,8,8,9,9,11,11,12,12,13,13],"right_children":[2,4,6,8,10,12,14,16,18,20,-1,22,24,26,-1,-1,-1,-1,-1,-1,-1,-1,-1,-1,-1,-1,-1],"split_conditions":[-4.3499598E-1,-5.6917787E-1,-6.8024965E-4,-6.930405E-1,-6.900223E-1,4.0442094E-1,1.1984656E-2,4.5568135E-1,-5.184703E-1,-6.2282264E-1,1.433464E-1,3.4283388E-1,-1.2679511E0,-1.0989159E0,1.3809586E-1,9.21332E-2,1.3709603E-1,8.002822E-3,7.827815E-2,3.5523396E-2,1.5021805E-1,-1.4327715E-1,4.6975385E-2,-8.4123634E-2,1.0649879E-1,-9.236684E-2,4.7321413E-2],"split_indices":[0,2,1,4,1,3,1,1,25,3,0,2,19,28,0,0,0,0,0,0,0,0,0,0,0,0,0],"split_type":[0,0,0,0,0,0,0,0,0,0,0,0,0,0,0,0,0,0,0,0,0,0,0,0,0,0,0],"sum_hessian":[9.763137E3,5.5139175E3,4.249219E3,2.0515618E3,3.4623555E3,4.211612E3,3.760721E1,7.3810236E2,1.3134594E3,5.181326E2,2.944223E3,4.2017563E3,9.855457E0,1.0282881E1,2.7324327E1,5.854227E2,1.5267964E2,5.957502E2,7.177092E2,3.9434103E2,1.2379158E2,4.195392E3,6.364263E0,1.9647461E0,7.8907113E0,2.2238457E0,8.059034E0],"tree_param":{"num_deleted":"0","num_feature":"30","num_nodes":"27","size_leaf_vector":"1"}},{"base_weights":[-2.8915065E-3,1.0160242E0,-1.346724E0,5.731226E-1,1.3064933E0,-1.3627973E0,9.630236E-1,-1.6211084E-1,6.488987E-1,9.215552E-1,1.3701179E0,1.592108E-1,-1.368526E0,-5.3272077E-5,1.3137722E-1,1.2381506E-1,2.918152E-2,1.0038725E-1,-1.4367697E-1,1.3717026E-1,1.3672334E-2,-7.3828556E-2,6.684536E-2,-1.7879389E-1,-1.3638066E-1,1.0815766E-1,-9.217532E-2],"categories":[],"categories_nodes":[],"categories_segments":[],"categories_sizes":[],"default_left":[0,0,0,0,0,0,0,0,0,0,0,0,0,0,0,0,0,0,0,0,0,0,0,0,0,0,0],"id":6,"left_children":[1,3,5,7,9,11,13,-1,15,17,19,21,23,25,-1,-1,-1,-1,-1,-1,-1,-1,-1,-1,-1,-1,-1],"loss_changes":[1.2688495E4,6.773008E2,1.496709E2,3.484406E2,7.6674805E1,3.482422E1,9.526884E0,0E0,4.2472852E2,8.966046E1,5.145996E0,7.705053E0,5.388672E0,9.499994E0,0E0,0E0,0E0,0E0,0E0,0E0,0E0,0E0,0E0,0E0,0E0,0E0,0E0],"parents":[2147483647,0,0,1,1,2,2,3,3,4,4,5,5,6,6,8,8,9,9,10,10,11,11,12,12,13,13],"right_children":[2,4,6,8,10,12,14,-1,16,18,20,22,24,26,-1,-1,-1,-1,-1,-1,-1,-1,-1,-1,-1,-1,-1],"split_conditions":[-4.3499598E-1,-7.696582E-1,4.0442094E-1,-9.540723E-1,-6.2282264E-1,-7.696582E-1,-7.696582E-1,-1.6211084E-1,-6.166804E-1,2.933E-1,3.1563494E0,-5.944043E-1,-7.513314E-1,-5.222919E-1,1.3137722E-1,1.2381506E-1,2.918152E-2,1.0038725E-1,-1.4367697E-1,1.3717026E-1,1.3672334E-2,-7.3828556E-2,6.684536E-2,-1.7879389E-1,-1.3638066E-1,1.0815766E-1,-9.217532E-2],"split_indices":[0,5,3,5,3,5,5,0,0,5,17,28,5,27,0,0,0,0,0,0,0,0,0,0,0,0,0],"split_type":[0,0,0,0,0,0,0,0,0,0,0,0,0,0,0,0,0,0,0,0,0,0,0,0,0,0,0],"sum_hessian":[9.264733E3,5.2695317E3,3.9952012E3,2.0883018E3,3.1812302E3,3.9679985E3,2.7202703E1,6.902974E1,2.019272E3,4.5342575E2,2.7278044E3,1.4778679E1,3.9532197E3,7.5291624E0,1.9673542E1,7.6100684E2,1.2582651E3,4.3868768E2,1.4738066E1,2.7241924E3,3.6120605E0,5.1870975E0,9.591581E0,3.978467E1,3.913435E3,3.3842416E0,4.144921E0],"tree_param":{"num_deleted":"0","num_feature":"30","num_nodes":"27","size_leaf_vector":"1"}},{"base_weights":[5.1568253E-3,8.528529E-1,-1.0180631E0,3.307684E-1,1.1878709E0,2.3498978E-1,-1.2148097E0,8.9585984E-1,5.531368E-3,3.6778337E-1,1.3288167E-1,8.519869E-2,8.350475E-1,-1.2901143E0,1.3233958E-1,9.819106E-2,-4.144328E-2,-3.5606742E-2,4.803084E-2,5.5917306E-3,1.3740706E-1,-1.2448934E-2,4.5281455E-2,1.02754354E-1,-1.6601773E-2,-1.2997681E-1,1.2481802E-1],"categories":[],"categories_nodes":[],"categories_segments":[],"categories_sizes":[],"default_left":[0,0,0,0,0,0,0,0,0,0,0,0,0,0,0,0,0,0,0,0,0,0,0,0,0,0,0],"id":7,"left_children":[1,3,5,7,9,11,13,15,17,19,-1,21,23,25,-1,-1,-1,-1,-1,-1,-1,-1,-1,-1,-1,-1,-1],"loss_changes":[7.6336284E3,8.414773E2,9.8335596E2,3.460222E2,3.3835498E2,4.8643333E1,6.604839E2,7.7953125E1,2.0549615E2,1.3528159E2,0E0,3.3574528E1,2.1011642E1,8.3657715E1,0E0,0E0,0E0,0E0,0E0,0E0,0E0,0E0,0E0,0E0,0E0,0E0,0E0],"parents":[2147483647,0,0,1,1,2,2,3,3,4,4,5,5,6,6,7,7,8,8,9,9,11,11,12,12,13,13],"right_children":[2,4,6,8,10,12,14,16,18,20,-1,22,24,26,-1,-1,-1,-1,-1,-1,-1,-1,-1,-1,-1,-1,-1],"split_conditions":[-3.2936934E-1,-3.0317593E-1,-7.696582E-1,-6.9030225E-1,-6.900223E-1,1.4801897E0,-6.8024965E-4,-3.1263202E-1,2.6563749E-2,-6.2282264E-1,1.3288167E-1,2.1561563E-1,1.1945709E0,3.4283388E-1,1.3233958E-1,9.819106E-2,-4.144328E-2,-3.5606742E-2,4.803084E-2,5.5917306E-3,1.3740706E-1,-1.2448934E-2,4.5281455E-2,1.02754354E-1,-1.6601773E-2,-1.2997681E-1,1.2481802E-1],"split_indices":[4,2,5,4,1,22,1,5,25,3,0,20,6,2,0,0,0,0,0,0,0,0,0,0,0,0,0],"split_type":[0,0,0,0,0,0,0,0,0,0,0,0,0,0,0,0,0,0,0,0,0,0,0,0,0,0,0],"sum_hessian":[8.798793E3,4.812226E3,3.9865671E3,1.8817448E3,2.9304812E3,5.409749E2,3.445592E3,6.8676056E2,1.1949843E3,4.3031558E2,2.5001658E3,4.338227E2,1.0715222E2,3.3467898E3,9.880238E1,6.446736E2,4.2086975E1,6.784866E2,5.164977E2,3.2931168E2,1.0100389E2,2.76671E2,1.5715172E2,8.984866E1,1.730356E1,3.3345952E3,1.2194459E1],"tree_param":{"num_deleted":"0","num_feature":"30","num_nodes":"27","size_leaf_vector":"1"}},{"base_weights":[-4.0479802E-4,8.985007E-1,-1.2893866E-1,4.8533064E-1,1.2120316E0,-1.5358725E-1,5.5321246E-1,5.636121E-1,1.2756996E0,1.136629E-1,2.2867529E-2,7.564192E-2,-1.3387604E-1,9.564597E-2,1.2899046E-1],"categories":[],"categories_nodes":[],"categories_segments":[],"categories_sizes":[],"default_left":[0,0,0,0,0,0,0,0,0,0,0,0,0,0,0],"id":8,"left_children":[1,3,-1,5,7,-1,9,11,13,-1,-1,-1,-1,-1,-1],"loss_changes":[9.678726E3,6.369238E2,0E0,2.923963E2,1.14765625E2,0E0,3.8914117E2,9.340904E1,1.0313965E1,0E0,0E0,0E0,0E0,0E0,0E0],"parents":[2147483647,0,0,1,1,3,3,4,4,6,6,7,7,8,8],"right_children":[2,4,-1,6,8,-1,10,12,14,-1,-1,-1,-1,-1,-1],"split_conditions":[-4.1785595E-1,-7.513314E-1,-1.2893866E-1,-9.540723E-1,-5.618774E-1,-1.5358725E-1,-6.166804E-1,-7.896447E-2,-1.492931E0,1.136629E-1,2.2867529E-2,7.564192E-2,-1.3387604E-1,9.564597E-2,1.2899046E-1],"split_indices":[0,5,0,5,1,0,0,5,10,0,0,0,0,0,0],"split_type":[0,0,0,0,0,0,0,0,0,0,0,0,0,0,0],"sum_hessian":[8.351285E3,4.9202925E3,3.430993E3,2.123931E3,2.7963616E3,6.831137E1,2.0556196E3,2.5090463E2,2.545457E3,7.338622E2,1.3217573E3,2.2836229E2,2.2542345E1,1.1134842E2,2.4341086E3],"tree_param":{"num_deleted":"0","num_feature":"30","num_nodes":"15","size_leaf_vector":"1"}},{"base_weights":[3.2130366E-3,7.34229E-1,-9.756642E-1,2.3766948E-1,1.0865283E0,2.0461619E-1,-1.1686797E0,7.7501625E-1,-3.613083E-2,2.4621718E-1,1.2545848E-1,4.2274633E-1,-3.39274E-1,-1.2209105E0,1.2415892E-1,8.833562E-2,-4.424849E-3,-3.1351034E-2,5.7220723E-2,-3.486114E-3,1.3028036E-1,1.1795183E-3,7.135093E-2,-5.113814E-2,1.0576677E-2,-1.2278505E-1,1.1406892E-1],"categories":[],"categories_nodes":[],"categories_segments":[],"categories_sizes":[],"default_left":[0,0,0,0,0,0,0,0,0,0,0,0,0,0,0,0,0,0,0,0,0,0,0,0,0,0,0],"id":9,"left_children":[1,3,5,7,9,11,13,15,17,19,-1,21,23,25,-1,-1,-1,-1,-1,-1,-1,-1,-1,-1,-1,-1,-1],"loss_changes":[5.6379673E3,7.88801E2,7.6760596E2,2.7563367E2,3.722644E2,5.641131E1,3.6598535E2,5.616681E1,2.097393E2,1.309974E2,0E0,4.0493767E1,1.0495355E1,4.785205E1,0E0,0E0,0E0,0E0,0E0,0E0,0E0,0E0,0E0,0E0,0E0,0E0,0E0],"parents":[2147483647,0,0,1,1,2,2,3,3,4,4,5,5,6,6,7,7,8,8,9,9,11,11,12,12,13,13],"right_children":[2,4,6,8,10,12,14,16,18,20,-1,22,24,26,-1,-1,-1,-1,-1,-1,-1,-1,-1,-1,-1,-1,-1],"split_conditions":[-2.8905237E-1,-2.8815806E-1,-7.696582E-1,-6.9030225E-1,-6.900223E-1,3.3957306E-1,-6.8024965E-4,-4.729921E-1,4.0442094E-1,-6.2282264E-1,1.2545848E-1,-3.7312096E-1,3.8919595E-1,3.4283388E-1,1.2415892E-1,8.833562E-2,-4.424849E-3,-3.1351034E-2,5.7220723E-2,-3.486114E-3,1.3028036E-1,1.1795183E-3,7.135093E-2,-5.113814E-2,1.0576677E-2,-1.2278505E-1,1.1406892E-1],"split_indices":[4,2,5,4,1,9,1,5,3,3,0,28,2,2,0,0,0,0,0,0,0,0,0,0,0,0,0],"split_type":[0,0,0,0,0,0,0,0,0,0,0,0,0,0,0,0,0,0,0,0,0,0,0,0,0,0,0],"sum_hessian":[7.876933E3,4.5095186E3,3.3674146E3,1.8722666E3,2.6372517E3,4.7327878E2,2.8941357E3,6.3136017E2,1.2409064E3,4.399403E2,2.1973115E3,3.3796057E2,1.353182E2,2.833233E3,6.0903E1,5.5755115E2,7.3809006E1,8.5262555E2,3.8828088E2,3.4826117E2,9.167915E1,1.4046886E2,1.9749171E2,9.74738E1,3.7844406E1,2.82541E3,7.822853E0],"tree_param":{"num_deleted":"0","num_feature":"30","num_nodes":"27","size_leaf_vector":"1"}},{"base_weights":[1.920086E-4,8.3235955E-1,-1.2049612E0,4.3637216E-1,1.1430048E0,-1.2253902E0,8.040906E-1,-1.4633946E-1,5.0402844E-1,5.349069E-1,1.210921E0,-1.1031199E-1,-1.2300066E0,-2.7370742E-1,1.1169814E0,1.0394188E-1,2.3041148E-2,7.513303E-2,-9.435647E-2,1.2156782E-1,-6.9492176E-2,-7.14448E-2,8.353993E-2,-1.231302E-1,8.2807936E-2,4.1803002E-2,-9.6838415E-2,1.1786218E-1,-9.892672E-3],"categories":[],"categories_nodes":[],"categories_segments":[],"categories_sizes":[],"default_left":[0,0,0,0,0,0,0,0,0,0,0,0,0,0,0,0,0,0,0,0,0,0,0,0,0,0,0,0,0],"id":10,"left_children":[1,3,5,7,9,11,13,-1,15,17,19,21,23,25,27,-1,-1,-1,-1,-1,-1,-1,-1,-1,-1,-1,-1,-1,-1],"loss_changes":[7.476001E3,5.4193335E2,1.25956055E2,2.5010574E2,1.0138159E2,1.53828125E1,1.0845581E1,0E0,2.7431015E2,8.069906E1,2.0985596E1,8.3256E0,9.0234375E0,4.169797E0,1.9467678E0,0E0,0E0,0E0,0E0,0E0,0E0,0E0,0E0,0E0,0E0,0E0,0E0,0E0,0E0],"parents":[2147483647,0,0,1,1,2,2,3,3,4,4,5,5,6,6,8,8,9,9,10,10,11,11,12,12,13,13,14,14],"right_children":[2,4,6,8,10,12,14,-1,16,18,20,22,24,26,28,-1,-1,-1,-1,-1,-1,-1,-1,-1,-1,-1,-1,-1,-1],"split_conditions":[-4.3499598E-1,-7.696582E-1,-6.8024965E-4,-9.540723E-1,-5.618774E-1,-7.696582E-1,-6.8886924E-1,-1.4633946E-1,-6.166804E-1,-2.9086885E-1,3.1563494E0,6.999875E-1,4.0442094E-1,-9.0292856E-2,1.6506331E0,1.0394188E-1,2.3041148E-2,7.513303E-2,-9.435647E-2,1.2156782E-1,-6.9492176E-2,-7.14448E-2,8.353993E-2,-1.231302E-1,8.2807936E-2,4.1803002E-2,-9.6838415E-2,1.1786218E-1,-9.892672E-3],"split_indices":[0,5,1,5,1,5,25,0,0,5,17,22,3,26,21,0,0,0,0,0,0,0,0,0,0,0,0,0,0],"split_type":[0,0,0,0,0,0,0,0,0,0,0,0,0,0,0,0,0,0,0,0,0,0,0,0,0,0,0,0,0],"sum_hessian":[7.452463E3,4.4086E3,3.043863E3,1.9391371E3,2.469463E3,3.0136091E3,3.0253923E1,6.597416E1,1.8731628E3,2.4898799E2,2.2204749E3,1.2527453E1,3.0010815E3,6.835E0,2.3418924E1,6.325819E2,1.240581E3,2.176234E2,3.1364594E1,2.2153074E3,5.167517E0,7.793424E0,4.734029E0,2.9995955E3,1.486305E0,3.6242864E0,3.2107134E0,2.2318172E1,1.1007509E0],"tree_param":{"num_deleted":"0","num_feature":"30","num_nodes":"29","size_leaf_vector":"1"}},{"base_weights":[-6.468784E-3,7.66951E-1,-1.2024686E0,3.7719837E-1,1.1077297E0,-1.2663458E-1,-1.19376265E-1,-1.400622E-1,4.3515223E-1,4.3059602E-1,1.1800765E0,1.010263E-1,1.579845E-2,6.574455E-2,-7.933872E-2,1.1848674E-1,-3.9865065E-2],"categories":[],"categories_nodes":[],"categories_segments":[],"categories_sizes":[],"default_left":[0,0,0,0,0,0,0,0,0,0,0,0,0,0,0,0,0],"id":11,"left_children":[1,3,5,7,9,-1,-1,-1,11,13,15,-1,-1,-1,-1,-1,-1],"loss_changes":[6.4612417E3,5.6299194E2,1.3916016E-2,2.04642E2,1.1033496E2,0E0,0E0,0E0,3.0565958E2,6.1602524E1,1.59296875E1,0E0,0E0,0E0,0E0,0E0,0E0],"parents":[2147483647,0,0,1,1,2,2,3,3,4,4,8,8,9,9,10,10],"right_children":[2,4,6,8,10,-1,-1,-1,12,14,16,-1,-1,-1,-1,-1,-1],"split_conditions":[-4.1785595E-1,-7.513314E-1,-3.2936934E-1,-9.540723E-1,-5.618774E-1,-1.2663458E-1,-1.19376265E-1,-1.400622E-1,-6.166804E-1,-3.1263202E-1,2.9996562E0,1.010263E-1,1.579845E-2,6.574455E-2,-7.933872E-2,1.1848674E-1,-3.9865065E-2],"split_indices":[0,5,4,5,1,0,0,0,0,5,17,0,0,0,0,0,0],"split_type":[0,0,0,0,0,0,0,0,0,0,0,0,0,0,0,0,0],"sum_hessian":[6.9830547E3,4.240925E3,2.7421296E3,1.9792919E3,2.261633E3,3.1157727E2,2.4305522E3,6.1753204E1,1.9175387E3,2.1898463E2,2.0426484E3,6.2273865E2,1.2948E3,1.851351E2,3.3849533E1,2.036717E3,5.931402E0],"tree_param":{"num_deleted":"0","num_feature":"30","num_nodes":"17","size_leaf_vector":"1"}},{"base_weights":[-8.656781E-4,7.5145954E-1,-1.152857E0,3.6750168E-1,1.0802909E0,-1.1671667E0,9.5449984E-1,-1.3418232E-1,4.2340323E-1,6.8289703E-1,1.1716831E0,3.7672862E-2,-1.175572E0,1.1042958E0,1.8935648E-1,9.508993E-2,1.8695882E-2,7.5898856E-2,-9.877864E-2,1.1736611E-1,-1.08603515E-1,-6.363455E-2,2.7154902E-2,-1.5032548E-1,-1.1702336E-1,1.2031954E-1,-7.429818E-3,-9.468826E-2,9.194391E-2],"categories":[],"categories_nodes":[],"categories_segments":[],"categories_sizes":[],"default_left":[0,0,0,0,0,0,0,0,0,0,0,0,0,0,0,0,0,0,0,0,0,0,0,0,0,0,0,0,0],"id":12,"left_children":[1,3,5,7,9,11,13,-1,15,17,19,21,23,25,27,-1,-1,-1,-1,-1,-1,-1,-1,-1,-1,-1,-1,-1,-1],"loss_changes":[5.721386E3,5.0381494E2,7.976074E1,1.7675531E2,7.7309814E1,2.6282227E1,1.870039E0,0E0,2.2260577E2,5.217502E1,9.076416E0,3.1550486E0,2.7419434E0,1.8335457E0,4.3355503E0,0E0,0E0,0E0,0E0,0E0,0E0,0E0,0E0,0E0,0E0,0E0,0E0,0E0,0E0],"parents":[2147483647,0,0,1,1,2,2,3,3,4,4,5,5,6,6,8,8,9,9,10,10,11,11,12,12,13,13,14,14],"right_children":[2,4,6,8,10,12,14,-1,16,18,20,22,24,26,28,-1,-1,-1,-1,-1,-1,-1,-1,-1,-1,-1,-1,-1,-1],"split_conditions":[-4.3499598E-1,-7.696582E-1,3.4283388E-1,-9.540723E-1,-5.6917787E-1,-7.696582E-1,3.6738294E-1,-1.3418232E-1,-6.166804E-1,6.994132E-2,3.4099452E0,-1.0989159E0,-7.513314E-1,1.4774535E0,4.8505124E-1,9.508993E-2,1.8695882E-2,7.5898856E-2,-9.877864E-2,1.1736611E-1,-1.08603515E-1,-6.363455E-2,2.7154902E-2,-1.5032548E-1,-1.1702336E-1,1.2031954E-1,-7.429818E-3,-9.468826E-2,9.194391E-2],"split_indices":[0,5,2,5,2,5,11,0,0,5,17,28,5,26,11,0,0,0,0,0,0,0,0,0,0,0,0,0,0],"split_type":[0,0,0,0,0,0,0,0,0,0,0,0,0,0,0,0,0,0,0,0,0,0,0,0,0,0,0,0,0],"sum_hessian":[6.599558E3,3.9925266E3,2.6070317E3,1.8428511E3,2.1496755E3,2.5898916E3,1.7140162E1,5.763131E1,1.7852197E3,4.035259E2,1.7461495E3,1.7918484E1,2.5719731E3,1.396325E1,3.1769109E0,5.516016E2,1.233618E3,3.864698E2,1.7056116E1,1.745101E3,1.0486966E0,4.172551E0,1.3745933E1,3.6730774E1,2.5352422E3,1.2863003E1,1.1002471E0,1.126605E0,2.0503058E0],"tree_param":{"num_deleted":"0","num_feature":"30","num_nodes":"29","size_leaf_vector":"1"}},{"base_weights":[-5.4768305E-3,7.080824E-1,-1.1301378E0,3.3692923E-1,1.0449727E0,-1.1511378E0,6.842847E-1,-1.297311E-1,3.8794255E-1,3.6800212E-1,1.13211E0,7.9520285E-2,-1.1585202E0,-1.2058549E-1,1.1411872E-1,9.1190495E-2,1.641041E-2,-6.2293615E-3,1.1396723E-1,7.131157E-2,1.15300596E-1,-4.6940465E-2,8.355486E-2,-1.1600318E-1,7.709163E-2,-5.9092086E-2,5.2745648E-2],"categories":[],"categories_nodes":[],"categories_segments":[],"categories_sizes":[],"default_left":[0,0,0,0,0,0,0,0,0,0,0,0,0,0,0,0,0,0,0,0,0,0,0,0,0,0,0],"id":13,"left_children":[1,3,5,7,9,11,13,-1,15,17,19,21,23,25,-1,-1,-1,-1,-1,-1,-1,-1,-1,-1,-1,-1,-1],"loss_changes":[4.9598965E3,4.7245874E2,9.220093E1,1.5062027E2,1.1648169E2,2.1643066E1,1.0462783E1,0E0,2.0473392E2,7.560127E1,1.454541E1,6.6505604E0,7.77124E0,3.6862073E0,0E0,0E0,0E0,0E0,0E0,0E0,0E0,0E0,0E0,0E0,0E0,0E0,0E0],"parents":[2147483647,0,0,1,1,2,2,3,3,4,4,5,5,6,6,8,8,9,9,10,10,11,11,12,12,13,13],"right_children":[2,4,6,8,10,12,14,-1,16,18,20,22,24,26,-1,-1,-1,-1,-1,-1,-1,-1,-1,-1,-1,-1,-1],"split_conditions":[-4.3499598E-1,-7.696582E-1,-6.8024965E-4,-9.540723E-1,-5.618774E-1,-7.696582E-1,-7.696582E-1,-1.297311E-1,-6.166804E-1,-8.16341E-2,-1.492931E0,-6.645879E-1,4.0442094E-1,-6.8886924E-1,1.1411872E-1,9.1190495E-2,1.641041E-2,-6.2293615E-3,1.1396723E-1,7.131157E-2,1.15300596E-1,-4.6940465E-2,8.355486E-2,-1.1600318E-1,7.709163E-2,-5.9092086E-2,5.2745648E-2],"split_indices":[0,5,1,5,1,5,5,0,0,2,10,8,3,25,0,0,0,0,0,0,0,0,0,0,0,0,0],"split_type":[0,0,0,0,0,0,0,0,0,0,0,0,0,0,0,0,0,0,0,0,0,0,0,0,0,0,0],"sum_hessian":[6.1784653E3,3.780339E3,2.3981262E3,1.7996542E3,1.9806848E3,2.3710496E3,2.7076822E1,5.3736732E1,1.7459174E3,2.2646906E2,1.7542158E3,1.408026E1,2.3569692E3,1.0071374E1,1.700545E1,5.2168353E2,1.2242339E3,1.4598483E2,8.048422E1,8.499837E1,1.6692174E3,8.377081E0,5.7031794E0,2.3555227E3,1.4465905E0,5.8869166E0,4.1844573E0],"tree_param":{"num_deleted":"0","num_feature":"30","num_nodes":"27","size_leaf_vector":"1"}},{"base_weights":[-7.1309175E-4,6.623197E-1,-1.1421861E-1,3.0025533E-1,1.0315536E0,7.329771E-1,1.2657359E-1,5.9755E-1,1.1340505E0,-1.2630928E-1,8.794393E-2,4.3132194E-4,6.838206E-2,7.356419E-2,-3.826059E-2,1.13584094E-1,-7.052516E-2],"categories":[],"categories_nodes":[],"categories_segments":[],"categories_sizes":[],"default_left":[0,0,0,0,0,0,0,0,0,0,0,0,0,0,0,0,0],"id":14,"left_children":[1,3,-1,5,7,9,11,13,15,-1,-1,-1,-1,-1,-1,-1,-1],"loss_changes":[4.4139663E3,4.928905E2,0E0,1.4000604E2,8.055542E1,1.5713623E2,9.0705246E1,4.77883E1,5.6623535E0,0E0,0E0,0E0,0E0,0E0,0E0,0E0,0E0],"parents":[2147483647,0,0,1,1,3,3,4,4,5,5,6,6,7,7,8,8],"right_children":[2,4,-1,6,8,10,12,14,16,-1,-1,-1,-1,-1,-1,-1,-1],"split_conditions":[-4.1785595E-1,-7.513314E-1,-1.1421861E-1,-6.4067644E-1,-5.6917787E-1,-9.540723E-1,1.4424644E0,1.6065428E0,3.4099452E0,-1.2630928E-1,8.794393E-2,4.3132194E-4,6.838206E-2,7.356419E-2,-3.826059E-2,1.13584094E-1,-7.052516E-2],"split_indices":[0,5,0,0,2,5,28,17,17,0,0,0,0,0,0,0,0],"split_type":[0,0,0,0,0,0,0,0,0,0,0,0,0,0,0,0,0],"sum_hessian":[5.830146E3,3.6882305E3,2.1419155E3,1.8631101E3,1.8251204E3,5.326963E2,1.3304138E3,3.4998865E2,1.4751317E3,3.5893616E1,4.9680267E2,1.0918655E3,2.385483E2,3.069874E2,4.300127E1,1.4740792E3,1.0525199E0],"tree_param":{"num_deleted":"0","num_feature":"30","num_nodes":"17","size_leaf_vector":"1"}},{"base_weights":[1.1213414E-3,6.464961E-1,-1.0947027E0,2.9850772E-1,9.9931574E-1,-1.1169066E0,6.8240726E-1,-1.2371605E-1,3.4360486E-1,3.0178404E-1,1.0970172E0,7.67315E-2,-1.125471E0,-4.0067747E-2,1.0973611E-1,8.7285176E-2,1.4123395E-2,-1.21249985E-2,1.1075697E-1,1.1029246E-1,-4.5961868E-2,7.427543E-2,-3.806704E-2,-1.1272644E-1,7.649217E-2,-8.360269E-2,2.3895158E-2],"categories":[],"categories_nodes":[],"categories_segments":[],"categories_sizes":[],"default_left":[0,0,0,0,0,0,0,0,0,0,0,0,0,0,0,0,0,0,0,0,0,0,0,0,0,0,0],"id":15,"left_children":[1,3,5,7,9,11,13,-1,15,17,19,21,23,25,-1,-1,-1,-1,-1,-1,-1,-1,-1,-1,-1,-1,-1],"loss_changes":[3.87771E3,4.233761E2,8.095386E1,1.2083748E2,1.1641382E2,2.060962E1,7.748557E0,0E0,1.8086995E2,7.2346596E1,1.4320801E1,4.924876E0,7.619629E0,2.496258E0,0E0,0E0,0E0,0E0,0E0,0E0,0E0,0E0,0E0,0E0,0E0,0E0,0E0],"parents":[2147483647,0,0,1,1,2,2,3,3,4,4,5,5,6,6,8,8,9,9,10,10,11,11,12,12,13,13],"right_children":[2,4,6,8,10,12,14,-1,16,18,20,22,24,26,-1,-1,-1,-1,-1,-1,-1,-1,-1,-1,-1,-1,-1],"split_conditions":[-4.3499598E-1,-7.696582E-1,-6.8024965E-4,-9.540723E-1,-5.618774E-1,-7.696582E-1,1.1984656E-2,-1.2371605E-1,-6.166804E-1,-6.180135E-2,3.1563494E0,-5.222919E-1,4.0442094E-1,-1.1333191E0,1.0973611E-1,8.7285176E-2,1.4123395E-2,-1.21249985E-2,1.1075697E-1,1.1029246E-1,-4.5961868E-2,7.427543E-2,-3.806704E-2,-1.1272644E-1,7.649217E-2,-8.360269E-2,2.3895158E-2],"split_indices":[0,5,1,5,1,5,1,0,0,2,17,27,3,24,0,0,0,0,0,0,0,0,0,0,0,0,0],"split_type":[0,0,0,0,0,0,0,0,0,0,0,0,0,0,0,0,0,0,0,0,0,0,0,0,0,0,0],"sum_hessian":[5.4810527E3,3.4497605E3,2.0312924E3,1.7377004E3,1.71206E3,2.0065928E3,2.4699627E1,4.882018E1,1.6888802E3,2.108441E2,1.501216E3,1.4238087E1,1.9923546E3,9.340444E0,1.5359184E1,4.6624042E2,1.2226399E3,1.3881587E2,7.202822E1,1.4958307E3,5.3852053E0,5.543029E0,8.695058E0,1.9908698E3,1.4849432E0,1.9062306E0,7.4342127E0],"tree_param":{"num_deleted":"0","num_feature":"30","num_nodes":"27","size_leaf_vector":"1"}},{"base_weights":[1.8037263E-3,5.953039E-1,-1.1130998E-1,2.6564467E-1,9.78899E-1,-1.2032546E-1,3.055043E-1,3.8255E-1,1.099509E0,8.0958694E-2,1.2083614E-2,-1.47993835E-2,1.0344999E-1,6.817376E-2,1.1163407E-1],"categories":[],"categories_nodes":[],"categories_segments":[],"categories_sizes":[],"default_left":[0,0,0,0,0,0,0,0,0,0,0,0,0,0,0],"id":16,"left_children":[1,3,-1,5,7,-1,9,11,13,-1,-1,-1,-1,-1,-1],"loss_changes":[3.409445E3,4.249569E2,0E0,1.0633091E2,1.11335815E2,0E0,1.6399617E2,9.109285E1,8.322998E0,0E0,0E0,0E0,0E0,0E0,0E0],"parents":[2147483647,0,0,1,1,3,3,4,4,6,6,7,7,8,8],"right_children":[2,4,-1,6,8,-1,10,12,14,-1,-1,-1,-1,-1,-1],"split_conditions":[-4.1785595E-1,-7.4674964E-1,-1.1130998E-1,-9.540723E-1,-6.2282264E-1,-1.2032546E-1,-6.166804E-1,-3.3240712E-1,-1.492931E0,8.0958694E-2,1.2083614E-2,-1.47993835E-2,1.0344999E-1,6.817376E-2,1.1163407E-1],"split_indices":[0,5,0,5,3,0,0,2,10,0,0,0,0,0,0],"split_type":[0,0,0,0,0,0,0,0,0,0,0,0,0,0,0],"sum_hessian":[5.1505884E3,3.361576E3,1.7890125E3,1.8087987E3,1.5527773E3,4.7015236E1,1.7617834E3,2.6191678E2,1.2908606E3,4.7146283E2,1.2903206E3,1.4483E2,1.1708677E2,5.160069E1,1.2392599E3],"tree_param":{"num_deleted":"0","num_feature":"30","num_nodes":"15","size_leaf_vector":"1"}},{"base_weights":[-8.141546E-4,5.678869E-1,-1.1011286E-1,2.392155E-1,8.938894E-1,1.6975892E-1,9.5692635E-1,2.777455E-1,1.1081032E-1,2.3903187E-2,-3.7349254E-2,1.033448E-1,1.2425947E-3,1.1976136E-2,1.1540277E-1],"categories":[],"categories_nodes":[],"categories_segments":[],"categories_sizes":[],"default_left":[0,0,0,0,0,0,0,0,0,0,0,0,0,0,0],"id":17,"left_children":[1,3,-1,5,7,9,11,13,-1,-1,-1,-1,-1,-1,-1],"loss_changes":[3.0228186E3,3.4101904E2,0E0,7.896017E1,2.1066919E2,5.459591E1,1.0093658E1,5.7134544E1,0E0,0E0,0E0,0E0,0E0,0E0,0E0],"parents":[2147483647,0,0,1,1,3,3,4,4,5,5,6,6,7,7],"right_children":[2,4,-1,6,8,10,12,14,-1,-1,-1,-1,-1,-1,-1],"split_conditions":[-4.1785595E-1,-5.6917787E-1,-1.1011286E-1,6.5863985E-1,-6.900223E-1,1.8658984E0,1.8226202E0,-6.2282264E-1,1.1081032E-1,2.3903187E-2,-3.7349254E-2,1.033448E-1,1.2425947E-3,1.1976136E-2,1.1540277E-1],"split_indices":[0,2,0,1,1,17,10,3,0,0,0,0,0,0,0],"split_type":[0,0,0,0,0,0,0,0,0,0,0,0,0,0,0],"sum_hessian":[4.8287144E3,3.1836953E3,1.6450193E3,1.5862218E3,1.5974735E3,1.4473872E3,1.3883461E2,4.127049E2,1.1847686E3,1.2841927E3,1.6319444E2,1.2834239E2,1.0492227E1,3.506273E2,6.207761E1],"tree_param":{"num_deleted":"0","num_feature":"30","num_nodes":"15","size_leaf_vector":"1"}},{"base_weights":[-6.9411187E-3,5.160561E-1,-1.0904165E-1,2.0024826E-1,9.357588E-1,-3.3247035E-2,4.2964494E-1,1.5445577E-1,1.0545104E0,5.5847954E-2,-1.9083494E-2,3.6152612E-2,1.0517631E-1,5.4595646E-2,-7.454065E-2,1.0636504E-1,-5.5838108E-2],"categories":[],"categories_nodes":[],"categories_segments":[],"categories_sizes":[],"default_left":[0,0,0,0,0,0,0,0,0,0,0,0,0,0,0,0,0],"id":18,"left_children":[1,3,-1,5,7,9,11,13,15,-1,-1,-1,-1,-1,-1,-1,-1],"loss_changes":[2.6067688E3,4.1105292E2,0E0,9.491316E1,1.2341345E2,8.2067375E1,3.749623E1,6.2728928E1,1.763562E1,0E0,0E0,0E0,0E0,0E0,0E0,0E0,0E0],"parents":[2147483647,0,0,1,1,3,3,4,4,5,5,6,6,7,7,8,8],"right_children":[2,4,-1,6,8,10,12,14,16,-1,-1,-1,-1,-1,-1,-1,-1],"split_conditions":[-4.1785595E-1,-7.4674964E-1,-1.0904165E-1,-6.8886924E-1,-5.618774E-1,-6.6467255E-1,6.5863985E-1,-4.729921E-1,2.713296E0,5.5847954E-2,-1.9083494E-2,3.6152612E-2,1.0517631E-1,5.4595646E-2,-7.454065E-2,1.0636504E-1,-5.5838108E-2],"split_indices":[0,5,0,25,1,0,1,5,17,0,0,0,0,0,0,0,0],"split_type":[0,0,0,0,0,0,0,0,0,0,0,0,0,0,0,0,0],"sum_hessian":[4.5982847E3,3.1016375E3,1.4966471E3,1.7707231E3,1.3309144E3,8.7794604E2,8.927771E2,1.7590192E2,1.1550125E3,1.8410532E2,6.938407E2,8.060948E2,8.6682274E1,1.2284804E2,5.3053883E1,1.1488427E3,6.1697993E0],"tree_param":{"num_deleted":"0","num_feature":"30","num_nodes":"17","size_leaf_vector":"1"}},{"base_weights":[6.9731013E-3,5.252825E-1,-1.0437925E0,2.2198172E-1,9.10517E-1,-1.0674698E0,5.11444E-1,-1.1907351E-1,2.6027173E-1,3.1195322E-1,1.0648762E0,1.4087558E-1,-1.0799489E0,-2.3264477E-3,1.0071299E-1,7.740372E-2,9.446157E-3,-8.5031E-3,1.1055124E-1,8.121481E-2,1.08667195E-1,4.70013E-2,-6.278648E-2,-1.0822668E-1,7.206083E-2,-9.337946E-2,2.9924298E-2],"categories":[],"categories_nodes":[],"categories_segments":[],"categories_sizes":[],"default_left":[0,0,0,0,0,0,0,0,0,0,0,0,0,0,0,0,0,0,0,0,0,0,0,0,0,0,0],"id":19,"left_children":[1,3,5,7,9,11,13,-1,15,17,19,21,23,25,-1,-1,-1,-1,-1,-1,-1,-1,-1,-1,-1,-1,-1],"loss_changes":[2.3611045E3,3.3901654E2,5.328064E1,8.82474E1,1.1779822E2,2.142749E1,5.6436157E0,0E0,1.3482944E2,8.311548E1,4.7142334E0,4.168064E0,6.6088867E0,3.61514E0,0E0,0E0,0E0,0E0,0E0,0E0,0E0,0E0,0E0,0E0,0E0,0E0,0E0],"parents":[2147483647,0,0,1,1,2,2,3,3,4,4,5,5,6,6,8,8,9,9,10,10,11,11,12,12,13,13],"right_children":[2,4,6,8,10,12,14,-1,16,18,20,22,24,26,-1,-1,-1,-1,-1,-1,-1,-1,-1,-1,-1,-1,-1],"split_conditions":[-4.3499598E-1,-7.696582E-1,-6.8024965E-4,-9.540723E-1,-6.2282264E-1,-7.696582E-1,-7.696582E-1,-1.1907351E-1,-6.166804E-1,-6.8024965E-4,-6.900223E-1,7.6097625E-1,4.0442094E-1,-1.1333191E0,1.0071299E-1,7.740372E-2,9.446157E-3,-8.5031E-3,1.1055124E-1,8.121481E-2,1.08667195E-1,4.70013E-2,-6.278648E-2,-1.0822668E-1,7.206083E-2,-9.337946E-2,2.9924298E-2],"split_indices":[0,5,1,5,3,5,5,0,0,1,1,20,3,24,0,0,0,0,0,0,0,0,0,0,0,0,0],"split_type":[0,0,0,0,0,0,0,0,0,0,0,0,0,0,0,0,0,0,0,0,0,0,0,0,0,0,0],"sum_hessian":[4.333304E3,2.9022273E3,1.4310769E3,1.6246738E3,1.2775536E3,1.4099254E3,2.115141E1,4.2078613E1,1.5825952E3,2.6253473E2,1.01501886E3,1.4306857E1,1.3956185E3,1.0874978E1,1.027643E1,3.8524365E2,1.1973516E3,1.755882E2,8.6946526E1,8.3624985E1,9.3139386E2,1.028984E1,4.0170174E0,1.3942227E3,1.3958944E0,2.1470032E0,8.727975E0],"tree_param":{"num_deleted":"0","num_feature":"30","num_nodes":"27","size_leaf_vector":"1"}},{"base_weights":[2.2196819E-3,4.7530618E-1,-1.0725757E-1,1.9908251E-1,8.8395685E-1,-1.1681827E-1,2.3312062E-1,8.827159E-2,1.0260541E0,1.6266702E-2,1.15531065E-1,4.6876505E-2,-7.171886E-2,6.748142E-2,1.0775145E-1],"categories":[],"categories_nodes":[],"categories_segments":[],"categories_sizes":[],"default_left":[0,0,0,0,0,0,0,0,0,0,0,0,0,0,0],"id":20,"left_children":[1,3,-1,5,7,-1,9,11,13,-1,-1,-1,-1,-1,-1],"loss_changes":[2.0756782E3,3.197829E2,0E0,7.904433E1,1.2913489E2,0E0,1.0716579E2,5.3747208E1,1.6799377E1,0E0,0E0,0E0,0E0,0E0,0E0],"parents":[2147483647,0,0,1,1,3,3,4,4,6,6,7,7,8,8],"right_children":[2,4,-1,6,8,-1,10,12,14,-1,-1,-1,-1,-1,-1],"split_conditions":[-4.1785595E-1,-7.4674964E-1,-1.0725757E-1,-9.540723E-1,-6.900223E-1,-1.1681827E-1,6.0386217E-1,-4.729921E-1,-6.2282264E-1,1.6266702E-2,1.15531065E-1,4.6876505E-2,-7.171886E-2,6.748142E-2,1.0775145E-1],"split_indices":[0,5,0,5,1,0,1,5,3,0,0,0,0,0,0],"split_type":[0,0,0,0,0,0,0,0,0,0,0,0,0,0,0],"sum_hessian":[4.0801914E3,2.8335303E3,1.246661E3,1.6915977E3,1.1419327E3,4.0280094E1,1.6513175E3,1.7327681E2,9.68656E2,1.5352069E3,1.1611056E2,1.17967735E2,5.5309074E1,1.25586365E2,8.4306964E2],"tree_param":{"num_deleted":"0","num_feature":"30","num_nodes":"15","size_leaf_vector":"1"}},{"base_weights":[-1.1709409E-4,4.5777127E-1,-1.0249234E0,1.7971116E-1,8.602064E-1,-1.0485717E0,4.4120517E-1,5.8127636E-1,6.169487E-2,1.9731285E-1,1.0135282E0,1.1443852E-1,-1.0635588E0,-1.18669726E-1,9.900762E-2,-1.1328017E-1,7.212778E-2,3.6615185E-2,-1.7975133E-2,-1.5870584E-2,9.54814E-2,1.03115276E-1,-6.4114183E-3,1.0212672E-1,-2.3793994E-2,-1.3090251E-1,-1.0559609E-1,-6.222248E-2,4.7781568E-2],"categories":[],"categories_nodes":[],"categories_segments":[],"categories_sizes":[],"default_left":[0,0,0,0,0,0,0,0,0,0,0,0,0,0,0,0,0,0,0,0,0,0,0,0,0,0,0,0,0],"id":21,"left_children":[1,3,5,7,9,11,13,15,17,19,21,23,25,27,-1,-1,-1,-1,-1,-1,-1,-1,-1,-1,-1,-1,-1,-1,-1],"loss_changes":[1.8191577E3,2.9968823E2,4.1972046E1,7.512195E1,1.11053894E2,2.0663452E1,6.1738114E0,8.72311E1,9.024806E1,5.5939137E1,1.6946411E1,5.3227296E0,7.878418E-1,3.4959624E0,0E0,0E0,0E0,0E0,0E0,0E0,0E0,0E0,0E0,0E0,0E0,0E0,0E0,0E0,0E0],"parents":[2147483647,0,0,1,1,2,2,3,3,4,4,5,5,6,6,7,7,8,8,9,9,10,10,11,11,12,12,13,13],"right_children":[2,4,6,8,10,12,14,16,18,20,22,24,26,28,-1,-1,-1,-1,-1,-1,-1,-1,-1,-1,-1,-1,-1,-1,-1],"split_conditions":[-4.3499598E-1,-7.696582E-1,-6.8024965E-4,-6.4067644E-1,-3.906685E-1,-7.696582E-1,-7.696582E-1,-9.540723E-1,-6.093108E-1,-8.16341E-2,2.092397E0,-8.5202414E-1,-7.513314E-1,-2.624338E-1,9.900762E-2,-1.1328017E-1,7.212778E-2,3.6615185E-2,-1.7975133E-2,-1.5870584E-2,9.54814E-2,1.03115276E-1,-6.4114183E-3,1.0212672E-1,-2.3793994E-2,-1.3090251E-1,-1.0559609E-1,-6.222248E-2,4.7781568E-2],"split_indices":[0,5,1,0,1,5,5,5,23,2,17,29,5,4,0,0,0,0,0,0,0,0,0,0,0,0,0,0,0],"split_type":[0,0,0,0,0,0,0,0,0,0,0,0,0,0,0,0,0,0,0,0,0,0,0,0,0,0,0,0,0],"sum_hessian":[3.8747598E3,2.6785322E3,1.1962277E3,1.584901E3,1.0936311E3,1.1775194E3,1.8708225E1,3.590984E2,1.2258026E3,2.0586244E2,8.8776874E2,1.4896665E1,1.1626228E3,9.649283E0,9.058941E0,2.6580032E1,3.3251834E2,5.4192883E2,6.838738E2,1.4058109E2,6.528135E1,8.7352563E2,1.4243068E1,3.6375072E0,1.1259157E1,2.9763449E1,1.1328594E3,5.208824E0,4.4404597E0],"tree_param":{"num_deleted":"0","num_feature":"30","num_nodes":"29","size_leaf_vector":"1"}},{"base_weights":[-7.927795E-3,4.0342632E-1,-1.0583305E-1,1.4125934E-1,8.4532183E-1,-6.1802953E-2,3.694227E-1,1.0433108E-1,9.978174E-1,2.7196383E-2,-3.2474604E-2,5.6081492E-2,4.566993E-3,5.1076677E-2,-5.3201836E-2,2.481683E-2,1.0408684E-1],"categories":[],"categories_nodes":[],"categories_segments":[],"categories_sizes":[],"default_left":[0,0,0,0,0,0,0,0,0,0,0,0,0,0,0,0,0],"id":22,"left_children":[1,3,-1,5,7,9,11,13,15,-1,-1,-1,-1,-1,-1,-1,-1],"loss_changes":[1.583191E3,3.049104E2,0E0,7.66431E1,1.10658325E2,7.695526E1,4.8237E1,4.3829807E1,2.5973389E1,0E0,0E0,0E0,0E0,0E0,0E0,0E0,0E0],"parents":[2147483647,0,0,1,1,3,3,4,4,5,5,6,6,7,7,8,8],"right_children":[2,4,-1,6,8,10,12,14,16,-1,-1,-1,-1,-1,-1,-1,-1],"split_conditions":[-4.1785595E-1,-7.4674964E-1,-1.0583305E-1,5.0363753E-2,-5.618774E-1,-5.686883E-1,6.320038E-2,-5.279727E-1,-1.492931E0,2.7196383E-2,-3.2474604E-2,5.6081492E-2,4.566993E-3,5.1076677E-2,-5.3201836E-2,2.481683E-2,1.0408684E-1],"split_indices":[0,5,0,25,1,0,23,5,10,0,0,0,0,0,0,0,0],"split_type":[0,0,0,0,0,0,0,0,0,0,0,0,0,0,0,0,0],"sum_hessian":[3.6620637E3,2.6319622E3,1.0301016E3,1.6527446E3,9.7921765E2,8.748601E2,7.778845E2,1.6741516E2,8.118025E2,3.8549622E2,4.8936392E2,4.884163E2,2.8946823E2,1.022839E2,6.5131256E1,4.4455864E1,7.673466E2],"tree_param":{"num_deleted":"0","num_feature":"30","num_nodes":"17","size_leaf_vector":"1"}},{"base_weights":[-6.2762364E-3,3.9718553E-1,-1.011669E0,1.3588138E-1,8.2413566E-1,-1.0293266E0,4.7948998E-1,3.258481E-2,5.14122E-1,1.9000258E-1,1.020462E0,-8.184887E-2,-1.045523E0,8.745429E-1,-1.9147162E-1,5.2824344E-2,-8.477791E-3,-1.0473926E-1,5.5206526E-2,-1.68505E-2,9.070208E-2,3.7835892E-2,1.0546731E-1,-3.647866E-2,4.831178E-2,-1.0507184E-1,7.965379E-2,1.050332E-1,-1.6400209E-2,-9.68643E-2,6.9010764E-2],"categories":[],"categories_nodes":[],"categories_segments":[],"categories_sizes":[],"default_left":[0,0,0,0,0,0,0,0,0,0,0,0,0,0,0,0,0,0,0,0,0,0,0,0,0,0,0,0,0,0,0],"id":23,"left_children":[1,3,5,7,9,11,13,15,17,19,21,23,25,27,29,-1,-1,-1,-1,-1,-1,-1,-1,-1,-1,-1,-1,-1,-1,-1,-1],"loss_changes":[1.4168699E3,2.7797897E2,2.6831604E1,6.0445152E1,1.17601746E2,1.5089844E1,3.4512327E0,7.081658E1,2.0242416E1,5.796753E1,1.5466919E1,3.006444E0,1.0141113E1,1.6285992E0,4.3760605E0,0E0,0E0,0E0,0E0,0E0,0E0,0E0,0E0,0E0,0E0,0E0,0E0,0E0,0E0,0E0,0E0],"parents":[2147483647,0,0,1,1,2,2,3,3,4,4,5,5,6,6,7,7,8,8,9,9,10,10,11,11,12,12,13,13,14,14],"right_children":[2,4,6,8,10,12,14,16,18,20,22,24,26,28,30,-1,-1,-1,-1,-1,-1,-1,-1,-1,-1,-1,-1,-1,-1,-1,-1],"split_conditions":[-4.3499598E-1,-7.696582E-1,3.4283388E-1,9.238942E-1,-6.2282264E-1,-7.696582E-1,-3.048821E-1,-6.4753246E-1,-9.540723E-1,-8.16341E-2,-1.492931E0,4.3139923E-1,4.0442094E-1,9.0884316E-1,-1.3706376E-1,5.2824344E-2,-8.477791E-3,-1.0473926E-1,5.5206526E-2,-1.68505E-2,9.070208E-2,3.7835892E-2,1.0546731E-1,-3.647866E-2,4.831178E-2,-1.0507184E-1,7.965379E-2,1.050332E-1,-1.6400209E-2,-9.68643E-2,6.9010764E-2],"split_indices":[0,5,2,25,3,5,4,0,5,2,10,11,3,15,4,0,0,0,0,0,0,0,0,0,0,0,0,0,0,0,0],"split_type":[0,0,0,0,0,0,0,0,0,0,0,0,0,0,0,0,0,0,0,0,0,0,0,0,0,0,0,0,0,0,0],"sum_hessian":[3.490955E3,2.491662E3,9.992932E2,1.5464897E3,9.451722E2,9.879046E2,1.1388577E1,1.2155989E3,3.308909E2,2.239105E2,7.212617E2,1.6705362E1,9.711993E2,6.977125E0,4.4114523E0,2.3205574E2,9.8354315E2,7.21846E0,3.2367242E2,1.4978387E2,7.412663E1,3.7094624E1,6.8416705E2,1.1367028E1,5.338334E0,9.688962E2,2.3030987E0,5.9573984E0,1.019727E0,2.2920752E0,2.119377E0],"tree_param":{"num_deleted":"0","num_feature":"30","num_nodes":"31","size_leaf_vector":"1"}},{"base_weights":[8.257543E-4,3.633236E-1,-1.046891E-1,1.9270319E-1,9.768582E-1,6.442609E-3,4.6708968E-1,6.475549E-1,1.0590889E-1,3.368593E-2,-1.0430639E-2,1.6683117E-2,1.07504345E-1,2.4401017E-4,8.34062E-2],"categories":[],"categories_nodes":[],"categories_segments":[],"categories_sizes":[],"default_left":[0,0,0,0,0,0,0,0,0,0,0,0,0,0,0],"id":24,"left_children":[1,3,-1,5,7,9,11,13,-1,-1,-1,-1,-1,-1,-1],"loss_changes":[1.2664169E3,2.5914362E2,0E0,9.912255E1,1.390387E1,4.2348648E1,1.4297766E2,1.32608185E1,0E0,0E0,0E0,0E0,0E0,0E0,0E0],"parents":[2147483647,0,0,1,1,3,3,4,4,5,5,6,6,7,7],"right_children":[2,4,-1,6,8,10,12,14,-1,-1,-1,-1,-1,-1,-1],"split_conditions":[-4.1785595E-1,5.5792814E-1,-1.046891E-1,-6.2282264E-1,-6.2282264E-1,-1.1727397E0,-6.900223E-1,-1.0989159E0,1.0590889E-1,3.368593E-2,-1.0430639E-2,1.6683117E-2,1.07504345E-1,2.4401017E-4,8.34062E-2],"split_indices":[0,1,0,3,3,23,1,28,0,0,0,0,0,0,0],"split_type":[0,0,0,0,0,0,0,0,0,0,0,0,0,0,0],"sum_hessian":[3.3324727E3,2.4763408E3,8.5613196E2,1.9385542E3,5.3778656E2,1.1553181E3,7.83236E2,1.0923116E2,4.2855542E2,2.8951532E2,8.6580286E2,5.2514825E2,2.580878E2,2.472439E1,8.4506775E1],"tree_param":{"num_deleted":"0","num_feature":"30","num_nodes":"15","size_leaf_vector":"1"}},{"base_weights":[-5.174085E-3,3.3010277E-1,-1.04196005E-1,1.6571976E-1,9.601299E-1,2.1332005E-2,4.704533E-1,6.058178E-1,1.05192535E-1,-6.9341958E-3,4.687148E-2,1.2016794E-2,1.0641604E-1,2.9821208E-2,1.0530312E-1],"categories":[],"categories_nodes":[],"categories_segments":[],"categories_sizes":[],"default_left":[0,0,0,0,0,0,0,0,0,0,0,0,0,0,0],"id":25,"left_children":[1,3,-1,5,7,9,11,13,-1,-1,-1,-1,-1,-1,-1],"loss_changes":[1.1061527E3,2.4887323E2,0E0,8.3951416E1,1.553894E1,5.259778E1,1.2744446E2,1.4088974E1,0E0,0E0,0E0,0E0,0E0,0E0,0E0],"parents":[2147483647,0,0,1,1,3,3,4,4,5,5,6,6,7,7],"right_children":[2,4,-1,6,8,10,12,14,-1,-1,-1,-1,-1,-1,-1],"split_conditions":[-4.1785595E-1,5.5792814E-1,-1.04196005E-1,-5.6917787E-1,-6.2282264E-1,1.3555593E0,-6.2282264E-1,-5.6917787E-1,1.05192535E-1,-6.9341958E-3,4.687148E-2,1.2016794E-2,1.0641604E-1,2.9821208E-2,1.0530312E-1],"split_indices":[0,1,0,2,3,28,3,2,0,0,0,0,0,0,0],"split_type":[0,0,0,0,0,0,0,0,0,0,0,0,0,0,0],"sum_hessian":[3.1801733E3,2.403582E3,7.765911E2,1.9072235E3,4.963586E2,1.2947972E3,6.124262E2,1.0369928E2,3.9265933E2,1.0772991E3,2.174982E2,3.8593073E2,2.2649551E2,6.242705E1,4.127223E1],"tree_param":{"num_deleted":"0","num_feature":"30","num_nodes":"15","size_leaf_vector":"1"}},{"base_weights":[2.0861777E-4,3.128727E-1,-1.0375581E-1,7.9064265E-2,6.6532665E-1,1.524117E-1,-3.8759455E-1,1.9063438E-1,1.0501955E-1,2.9589063E-2,-1.1033887E-2,2.7604947E-2,-5.184964E-2,-1.2540752E-2,3.549401E-2],"categories":[],"categories_nodes":[],"categories_segments":[],"categories_sizes":[],"default_left":[0,0,0,0,0,0,0,0,0,0,0,0,0,0,0],"id":26,"left_children":[1,3,-1,5,7,9,11,13,-1,-1,-1,-1,-1,-1,-1],"loss_changes":[9.8772046E2,1.927204E2,0E0,4.8234844E1,1.7021716E2,4.5913654E1,1.677542E1,2.179609E1,0E0,0E0,0E0,0E0,0E0,0E0,0E0],"parents":[2147483647,0,0,1,1,3,3,4,4,5,5,6,6,7,7],"right_children":[2,4,-1,6,8,10,12,14,-1,-1,-1,-1,-1,-1,-1],"split_conditions":[-4.1785595E-1,-5.6917787E-1,-1.0375581E-1,1.6498046E0,-6.2282264E-1,-6.918189E-2,-8.292169E-1,-8.472148E-1,1.0501955E-1,2.9589063E-2,-1.1033887E-2,2.7604947E-2,-5.184964E-2,-1.2540752E-2,3.549401E-2],"split_indices":[0,2,0,17,3,9,0,17,0,0,0,0,0,0,0],"split_type":[0,0,0,0,0,0,0,0,0,0,0,0,0,0,0],"sum_hessian":[3.0420813E3,2.3382876E3,7.037937E2,1.4064867E3,9.3180096E2,1.2160298E3,1.9045694E2,4.1788373E2,5.1391724E2,7.8645044E2,4.295793E2,3.1195196E1,1.5926175E2,1.4302055E2,2.748632E2],"tree_param":{"num_deleted":"0","num_feature":"30","num_nodes":"15","size_leaf_vector":"1"}},{"base_weights":[-1.6249573E-2,2.7233884E-1,-6.1879045E-1,3.6868587E-1,-3.5899723E-1,-1.36143E-1,-9.7865677E-1,1.7312263E-1,6.546571E-1,-8.542946E-2,-7.087586E-1,-2.3929499E-1,6.0679024E-1,-7.0334226E-1,-1.01546064E-1,-1.1447648E-1,2.1666853E-2,7.3448226E-2,6.5194084E-3,5.5685278E-2,-2.2078112E-2,-9.5653296E-2,1.9921134E-4,-4.755694E-2,4.5158686E-3,7.716894E-2,-2.9092226E-2,-8.462752E-2,2.3163565E-2],"categories":[],"categories_nodes":[],"categories_segments":[],"categories_sizes":[],"default_left":[0,0,0,0,0,0,0,0,0,0,0,0,0,0,0,0,0,0,0,0,0,0,0,0,0,0,0,0,0],"id":27,"left_children":[1,3,5,7,9,11,13,15,17,19,21,23,25,27,-1,-1,-1,-1,-1,-1,-1,-1,-1,-1,-1,-1,-1,-1,-1],"loss_changes":[5.088236E2,1.2048486E2,1.6445825E2,9.591707E1,2.5054153E1,3.1253227E1,4.78479E0,5.8848164E1,3.2748962E1,1.3025486E1,2.026453E1,2.4025381E1,7.592325E0,9.182812E0,0E0,0E0,0E0,0E0,0E0,0E0,0E0,0E0,0E0,0E0,0E0,0E0,0E0,0E0,0E0],"parents":[2147483647,0,0,1,1,2,2,3,3,4,4,5,5,6,6,7,7,8,8,9,9,10,10,11,11,12,12,13,13],"right_children":[2,4,6,8,10,12,14,16,18,20,22,24,26,28,-1,-1,-1,-1,-1,-1,-1,-1,-1,-1,-1,-1,-1,-1,-1],"split_conditions":[-2.4541391E-1,1.5338211E0,-7.0436877E-1,-7.4674964E-1,-7.891305E-1,1.8488286E0,-6.026585E-2,-9.540723E-1,-4.09928E-1,-9.0004647E-1,-5.5090356E-1,2.7713387E-3,4.8412287E-1,6.9469404E-1,-1.01546064E-1,-1.1447648E-1,2.1666853E-2,7.3448226E-2,6.5194084E-3,5.5685278E-2,-2.2078112E-2,-9.5653296E-2,1.9921134E-4,-4.755694E-2,4.5158686E-3,7.716894E-2,-2.9092226E-2,-8.462752E-2,2.3163565E-2],"split_indices":[4,17,5,5,5,28,4,5,4,4,12,20,18,10,0,0,0,0,0,0,0,0,0,0,0,0,0,0,0],"split_type":[0,0,0,0,0,0,0,0,0,0,0,0,0,0,0,0,0,0,0,0,0,0,0,0,0,0,0,0,0],"sum_hessian":[2.9242163E3,1.9775919E3,9.4662445E2,1.7161147E3,2.6147708E2,4.049243E2,5.417002E2,1.02011084E3,6.9600397E2,1.4741776E2,1.1405935E2,3.5615247E2,4.877181E1,6.624664E1,4.7545352E2,3.1819723E1,9.8829114E2,6.1277576E2,8.322818E1,2.5116879E1,1.2230087E2,8.431911E1,2.9740238E1,1.9418535E2,1.6196712E2,4.1321854E1,7.449955E0,5.7544514E1,8.702132E0],"tree_param":{"num_deleted":"0","num_feature":"30","num_nodes":"29","size_leaf_vector":"1"}},{"base_weights":[-5.1701725E-3,2.6793846E-1,-1.0310464E-1,1.2303138E-1,9.4579494E-1,-9.537467E-2,3.0289194E-1,-1.0949798E-1,1.0357629E0,5.314033E-3,-3.3450354E-2,1.2792319E-2,5.621147E-2,3.2673232E-2,1.05162576E-1],"categories":[],"categories_nodes":[],"categories_segments":[],"categories_sizes":[],"default_left":[0,0,0,0,0,0,0,0,0,0,0,0,0,0,0],"id":28,"left_children":[1,3,-1,5,7,9,11,-1,13,-1,-1,-1,-1,-1,-1],"loss_changes":[7.8994525E2,2.1860326E2,0E0,7.213893E1,7.311087E1,2.9486258E1,4.559723E1,0E0,3.8851929E0,0E0,0E0,0E0,0E0,0E0,0E0],"parents":[2147483647,0,0,1,1,3,3,4,4,5,5,6,6,8,8],"right_children":[2,4,-1,6,8,10,12,-1,14,-1,-1,-1,-1,-1,-1],"split_conditions":[-4.1785595E-1,5.8049816E-1,-1.0310464E-1,-5.925306E-1,-9.540723E-1,3.4779772E-1,-6.2282264E-1,-1.0949798E-1,-9.50636E-1,5.314033E-3,-3.3450354E-2,1.2792319E-2,5.621147E-2,3.2673232E-2,1.05162576E-1],"split_indices":[0,1,0,25,5,6,3,0,5,0,0,0,0,0,0],"split_type":[0,0,0,0,0,0,0,0,0,0,0,0,0,0,0],"sum_hessian":[2.8174783E3,2.2256934E3,5.91785E2,1.8346722E3,3.9102103E2,8.2876556E2,1.0059067E3,1.6038702E1,3.7498233E2,5.117268E2,3.1703876E2,6.0144214E2,4.0446454E2,8.678351E0,3.6630396E2],"tree_param":{"num_deleted":"0","num_feature":"30","num_nodes":"15","size_leaf_vector":"1"}},{"base_weights":[-1.03972E-3,1.9125064E-1,-6.7976844E-1,-4.0462796E-2,5.8467156E-1,-9.522293E-4,-9.8785245E-1,4.8233856E-2,-4.0107822E-1,1.1538829E-1,1.0389872E-1,1.9741164E-1,-4.799718E-1,-9.983709E-1,7.280552E-2,-1.5564071E-3,6.023988E-2,-6.519667E-2,1.0553552E-1,6.01056E-2,1.9453828E-3,5.894443E-5,6.665521E-2,-1.8887937E-2,-1.0547326E-1,-1.00384906E-1,5.7907622E-2],"categories":[],"categories_nodes":[],"categories_segments":[],"categories_sizes":[],"default_left":[0,0,0,0,0,0,0,0,0,0,0,0,0,0,0,0,0,0,0,0,0,0,0,0,0,0,0],"id":29,"left_children":[1,3,5,7,9,11,13,15,17,19,-1,21,23,25,-1,-1,-1,-1,-1,-1,-1,-1,-1,-1,-1,-1,-1],"loss_changes":[3.5780295E2,1.947695E2,1.2657208E2,4.305191E1,1.6871634E2,1.814264E1,8.240387E0,3.821668E1,9.777295E1,1.819007E1,0E0,1.2467447E1,9.155402E0,4.1604004E0,0E0,0E0,0E0,0E0,0E0,0E0,0E0,0E0,0E0,0E0,0E0,0E0,0E0],"parents":[2147483647,0,0,1,1,2,2,3,3,4,4,5,5,6,6,7,7,8,8,9,9,11,11,12,12,13,13],"right_children":[2,4,6,8,10,12,14,16,18,20,-1,22,24,26,-1,-1,-1,-1,-1,-1,-1,-1,-1,-1,-1,-1,-1],"split_conditions":[-8.349226E-2,-2.5390324E-1,-7.696582E-1,-6.7573303E-1,-6.2282264E-1,3.7571594E-1,3.4283388E-1,2.0897107E0,1.9846383E-1,-6.9030225E-1,1.0389872E-1,7.299041E-1,6.9494236E-1,4.0442094E-1,7.280552E-2,-1.5564071E-3,6.023988E-2,-6.519667E-2,1.0553552E-1,6.01056E-2,1.9453828E-3,5.894443E-5,6.665521E-2,-1.8887937E-2,-1.0547326E-1,-1.00384906E-1,5.7907622E-2],"split_indices":[4,2,5,5,3,9,2,28,3,4,0,28,24,3,0,0,0,0,0,0,0,0,0,0,0,0,0],"split_type":[0,0,0,0,0,0,0,0,0,0,0,0,0,0,0,0,0,0,0,0,0,0,0,0,0,0,0],"sum_hessian":[2.739516E3,2.1352869E3,6.0422906E2,1.3443822E3,7.909047E2,1.8893741E2,4.1529166E2,1.0796891E3,2.646931E2,3.8966055E2,4.0124417E2,1.3402501E2,5.4912395E1,4.131771E2,2.114582E0,9.6909454E2,1.1059455E2,2.2626804E2,3.842508E1,6.340546E1,3.262551E2,9.511988E1,3.8905136E1,3.7333267E1,1.7579128E1,4.1210953E2,1.0675559E0],"tree_param":{"num_deleted":"0","num_feature":"30","num_nodes":"27","size_leaf_vector":"1"}},{"base_weights":[5.4522236E-3,2.5515485E-1,-5.07128E-1,1.0256276E-1,9.283198E-1,-9.7712055E-2,-9.487557E-1,-3.0278053E-2,4.078375E-1,-1.0626421E-1,1.0077379E0,4.892727E-2,-4.1971102E-1,-9.930477E-1,9.359348E-2,4.9825558E-3,-5.4040935E-2,6.6964286E-3,1.0391072E-1,3.0883914E-2,1.0405004E-1,-1.18124E-2,4.0744897E-2,-4.8893284E-2,4.317231E-2,-1.00241914E-1,7.360347E-2],"categories":[],"categories_nodes":[],"categories_segments":[],"categories_sizes":[],"default_left":[0,0,0,0,0,0,0,0,0,0,0,0,0,0,0,0,0,0,0,0,0,0,0,0,0,0,0],"id":30,"left_children":[1,3,5,7,9,11,13,15,17,-1,19,21,23,25,-1,-1,-1,-1,-1,-1,-1,-1,-1,-1,-1,-1,-1],"loss_changes":[3.3607385E2,1.8126642E2,1.5542493E2,5.8427105E1,5.263977E1,2.114819E1,3.5461E1,4.1079376E1,9.392864E1,0E0,6.8718567E0,1.8514925E1,8.46912E0,7.2947693E0,0E0,0E0,0E0,0E0,0E0,0E0,0E0,0E0,0E0,0E0,0E0,0E0,0E0],"parents":[2147483647,0,0,1,1,2,2,3,3,4,4,5,5,6,6,7,7,8,8,10,10,11,11,12,12,13,13],"right_children":[2,4,6,8,10,12,14,16,18,-1,20,22,24,26,-1,-1,-1,-1,-1,-1,-1,-1,-1,-1,-1,-1,-1],"split_conditions":[-2.7337256E-1,5.5792814E-1,-6.5855163E-1,-3.6847523E-1,-9.540723E-1,2.956266E-1,-1.579917E-1,-5.9326214E-1,-6.900223E-1,-1.0626421E-1,-9.4719976E-1,2.061198E-1,1.7376113E0,1.7520481E-1,9.359348E-2,4.9825558E-3,-5.4040935E-2,6.6964286E-3,1.0391072E-1,3.0883914E-2,1.0405004E-1,-1.18124E-2,4.0744897E-2,-4.8893284E-2,4.317231E-2,-1.00241914E-1,7.360347E-2],"split_indices":[4,1,5,2,5,9,1,5,1,0,5,25,20,3,0,0,0,0,0,0,0,0,0,0,0,0,0],"split_type":[0,0,0,0,0,0,0,0,0,0,0,0,0,0,0,0,0,0,0,0,0,0,0,0,0,0,0],"sum_hessian":[2.6237173E3,1.7645983E3,8.5911896E2,1.4394567E3,3.2514163E2,4.464519E2,4.1266705E2,1.0036274E3,4.3582935E2,1.1997259E1,3.1314438E2,3.073375E2,1.391144E2,4.036539E2,9.013149E0,8.6820013E2,1.3542722E2,2.8372794E2,1.5210141E2,1.4488946E1,2.9865543E2,2.101089E2,9.72286E1,1.2904848E2,1.0065917E1,4.0189594E2,1.7579528E0],"tree_param":{"num_deleted":"0","num_feature":"30","num_nodes":"27","size_leaf_vector":"1"}},{"base_weights":[-1.2939682E-3,2.3855755E-1,-9.5492417E-1,6.268083E-2,6.7201126E-1,-3.9476818E-1,-1.02323465E-1,-1.11690715E-1,9.1750115E-2,1.1527169E-1,9.6035135E-1,-6.9149965E-1,9.6665263E-1,5.328367E-2,-1.0670682E-3,-1.6368886E-2,8.664958E-2,4.9480246E-3,1.0212655E-1,-1.0129008E-2,-1.2349223E-1,-7.6471465E-3,1.0981136E-1],"categories":[],"categories_nodes":[],"categories_segments":[],"categories_sizes":[],"default_left":[0,0,0,0,0,0,0,0,0,0,0,0,0,0,0,0,0,0,0,0,0,0,0],"id":31,"left_children":[1,3,5,7,9,11,-1,-1,13,15,17,19,21,-1,-1,-1,-1,-1,-1,-1,-1,-1,-1],"loss_changes":[5.885227E2,1.5668965E2,1.9382294E1,5.028908E1,9.513452E1,2.4031519E1,0E0,0E0,6.457753E1,4.280342E1,2.162973E1,1.5291403E1,1.5603704E0,0E0,0E0,0E0,0E0,0E0,0E0,0E0,0E0,0E0,0E0],"parents":[2147483647,0,0,1,1,2,2,3,3,4,4,5,5,8,8,9,9,10,10,11,11,12,12],"right_children":[2,4,6,8,10,12,-1,-1,14,16,18,20,22,-1,-1,-1,-1,-1,-1,-1,-1,-1,-1],"split_conditions":[-4.3499598E-1,-7.696582E-1,-4.1785595E-1,-9.540723E-1,-6.2282264E-1,-7.513314E-1,-1.02323465E-1,-1.11690715E-1,-6.166804E-1,-6.180135E-2,-1.492931E0,-7.696582E-1,-8.5202414E-1,5.328367E-2,-1.0670682E-3,-1.6368886E-2,8.664958E-2,4.9480246E-3,1.0212655E-1,-1.0129008E-2,-1.2349223E-1,-7.6471465E-3,1.0981136E-1],"split_indices":[0,5,0,5,3,5,0,0,0,2,10,5,29,0,0,0,0,0,0,0,0,0,0],"split_type":[0,0,0,0,0,0,0,0,0,0,0,0,0,0,0,0,0,0,0,0,0,0,0],"sum_hessian":[2.57101E3,2.0549187E3,5.160914E2,1.4626027E3,5.923161E2,5.683277E1,4.5925858E2,3.4276855E1,1.4283258E3,2.0257509E2,3.89741E2,4.7066387E1,9.766384E0,2.6836774E2,1.159958E3,1.4829071E2,5.4284367E1,2.4543648E1,3.6519736E2,2.3130653E1,2.3935736E1,1.1398811E0,8.626503E0],"tree_param":{"num_deleted":"0","num_feature":"30","num_nodes":"23","size_leaf_vector":"1"}},{"base_weights":[-6.204632E-5,1.1853091E-1,-8.795118E-1,-5.619494E-2,4.7847825E-1,-9.6720946E-1,-1.8595123E-1,-1.5323128E-1,2.5550383E-1,1.9729684E-1,7.180711E-1,-9.912216E-1,3.6292665E-2,3.4756988E-1,-4.5089245E-1,1.935238E-2,-2.5510758E-2,3.9023798E-2,-3.780029E-2,8.883716E-3,8.8285215E-2,8.303403E-2,1.9647801E-2,-2.9714003E-2,-1.0075983E-1,5.8608484E-2,-6.333312E-2,-4.350109E-2,7.577646E-2,1.6777322E-2,-7.1571E-2],"categories":[],"categories_nodes":[],"categories_segments":[],"categories_sizes":[],"default_left":[0,0,0,0,0,0,0,0,0,0,0,0,0,0,0,0,0,0,0,0,0,0,0,0,0,0,0,0,0,0,0],"id":32,"left_children":[1,3,5,7,9,11,13,15,17,19,21,23,25,27,29,-1,-1,-1,-1,-1,-1,-1,-1,-1,-1,-1,-1,-1,-1,-1,-1],"loss_changes":[2.578118E2,1.3701756E2,1.7685654E1,4.4418404E1,4.781932E1,6.3134766E0,4.992264E0,3.9598965E1,2.9912031E1,2.4377684E1,2.232373E1,2.5930328E0,2.9676824E0,4.1547465E0,3.9363298E0,0E0,0E0,0E0,0E0,0E0,0E0,0E0,0E0,0E0,0E0,0E0,0E0,0E0,0E0,0E0,0E0],"parents":[2147483647,0,0,1,1,2,2,3,3,4,4,5,5,6,6,7,7,8,8,9,9,10,10,11,11,12,12,13,13,14,14],"right_children":[2,4,6,8,10,12,14,16,18,20,22,24,26,28,30,-1,-1,-1,-1,-1,-1,-1,-1,-1,-1,-1,-1,-1,-1,-1,-1],"split_conditions":[1.9369769E-1,-2.2675717E-1,2.4149544E0,6.283702E-1,-6.645879E-1,9.0208656E-1,-4.5907065E-1,-1.2512031E0,1.5708001E0,1.3231424E0,-3.438558E-1,-1.2512031E0,3.0406472E-1,-5.588242E-1,-6.499831E-1,1.935238E-2,-2.5510758E-2,3.9023798E-2,-3.780029E-2,8.883716E-3,8.8285215E-2,8.303403E-2,1.9647801E-2,-2.9714003E-2,-1.0075983E-1,5.8608484E-2,-6.333312E-2,-4.350109E-2,7.577646E-2,1.6777322E-2,-7.1571E-2],"split_indices":[4,2,10,25,8,25,27,23,17,2,4,23,4,17,22,0,0,0,0,0,0,0,0,0,0,0,0,0,0,0,0],"split_type":[0,0,0,0,0,0,0,0,0,0,0,0,0,0,0,0,0,0,0,0,0,0,0,0,0,0,0,0,0,0,0],"sum_hessian":[2.4699119E3,2.1771858E3,2.927262E2,1.4662714E3,7.1091437E2,2.5951688E2,3.320932E1,1.1185568E3,3.477145E2,3.2790964E2,3.8300473E2,2.5346411E2,6.0527477E0,1.0915843E1,2.2293478E1,2.538003E2,8.647565E2,2.8704898E2,6.0665527E1,2.840936E2,4.3816032E1,3.1468018E2,6.832456E1,6.283849E0,2.4718027E2,3.3922818E0,2.6604657E0,3.733146E0,7.1826973E0,6.7921476E0,1.5501331E1],"tree_param":{"num_deleted":"0","num_feature":"30","num_nodes":"31","size_leaf_vector":"1"}},{"base_weights":[-2.9172327E-3,1.9459292E-1,-1.0194105E-1,8.110607E-2,9.297041E-1,-8.862976E-2,2.2977132E-1,6.327348E-1,1.0276359E-1,6.608317E-3,-3.080046E-2,8.188876E-3,4.6968102E-2,3.7546676E-2,1.0168568E-1],"categories":[],"categories_nodes":[],"categories_segments":[],"categories_sizes":[],"default_left":[0,0,0,0,0,0,0,0,0,0,0,0,0,0,0],"id":33,"left_children":[1,3,-1,5,7,9,11,13,-1,-1,-1,-1,-1,-1,-1],"loss_changes":[4.848936E2,1.6863362E2,0E0,4.4253246E1,7.212372E0,2.7823463E1,3.3124653E1,6.500889E0,0E0,0E0,0E0,0E0,0E0,0E0,0E0],"parents":[2147483647,0,0,1,1,3,3,4,4,5,5,6,6,7,7],"right_children":[2,4,-1,6,8,10,12,14,-1,-1,-1,-1,-1,-1,-1],"split_conditions":[-4.1785595E-1,5.8049816E-1,-1.0194105E-1,-4.9769086E-1,-6.2282264E-1,2.0598939E-1,-6.2282264E-1,-5.6917787E-1,1.0276359E-1,6.608317E-3,-3.080046E-2,8.188876E-3,4.6968102E-2,3.7546676E-2,1.0168568E-1],"split_indices":[0,1,0,25,3,6,3,2,0,0,0,0,0,0,0],"split_type":[0,0,0,0,0,0,0,0,0,0,0,0,0,0,0],"sum_hessian":[2.4132085E3,2.0212728E3,3.919357E2,1.7519208E3,2.693521E2,8.181812E2,9.3373956E2,6.864708E1,2.0070503E2,4.802126E2,3.379686E2,5.784926E2,3.552469E2,4.2296326E1,2.635075E1],"tree_param":{"num_deleted":"0","num_feature":"30","num_nodes":"15","size_leaf_vector":"1"}},{"base_weights":[-9.701879E-3,-1.1710646E-1,8.914611E-1,-2.6355693E-2,-7.4816924E-1,-1.05226815E-1,1.0091535E0,-5.4137442E-2,8.346775E-1,-1.0001881E0,9.962965E-2,1.7956871E-1,1.0367276E-1,-9.374227E-3,6.018119E-2,-9.981871E-2,1.0958356E-1,-1.0258114E-1,8.270446E-2,5.487255E-2,-3.8079064E-2],"categories":[],"categories_nodes":[],"categories_segments":[],"categories_sizes":[],"default_left":[0,0,0,0,0,0,0,0,0,0,0,0,0,0,0,0,0,0,0,0,0],"id":34,"left_children":[1,3,5,7,9,-1,11,13,15,17,-1,19,-1,-1,-1,-1,-1,-1,-1,-1,-1],"loss_changes":[2.2832683E2,1.2068814E2,5.8531067E1,4.4149796E1,1.1748247E2,0E0,5.244049E0,4.6482246E1,2.8708862E1,1.1711105E1,0E0,2.0388386E0,0E0,0E0,0E0,0E0,0E0,0E0,0E0,0E0,0E0],"parents":[2147483647,0,0,1,1,2,2,3,3,4,4,6,6,7,7,8,8,9,9,11,11],"right_children":[2,4,6,8,10,-1,12,14,16,18,-1,20,-1,-1,-1,-1,-1,-1,-1,-1,-1],"split_conditions":[5.8049816E-1,-1.0530934E-1,-9.540723E-1,1.3879248E0,-4.6051374E-1,-1.05226815E-1,-9.50636E-1,2.5916002E0,-9.540723E-1,-2.7708176E-1,9.962965E-2,9.217305E-1,1.0367276E-1,-9.374227E-3,6.018119E-2,-9.981871E-2,1.0958356E-1,-1.0258114E-1,8.270446E-2,5.487255E-2,-3.8079064E-2],"split_indices":[1,5,5,3,1,0,5,28,5,3,0,14,0,0,0,0,0,0,0,0,0],"split_type":[0,0,0,0,0,0,0,0,0,0,0,0,0,0,0,0,0,0,0,0,0],"sum_hessian":[2.356937E3,2.106719E3,2.50218E2,1.8427603E3,2.6395868E2,1.3832285E1,2.3638571E2,1.7860687E3,5.6691452E1,2.3101161E2,3.294706E1,7.846007E0,2.285397E2,1.6851783E3,1.0089041E2,6.7183614E0,4.997309E1,2.2824947E2,2.7621436E0,4.742486E0,3.1035209E0],"tree_param":{"num_deleted":"0","num_feature":"30","num_nodes":"21","size_leaf_vector":"1"}},{"base_weights":[1.0276807E-2,2.0155516E-1,-9.2990655E-1,1.1355143E-1,9.3808657E-1,-9.716703E-1,2.0490433E-1,1.714115E-1,-3.8961634E-1,-1.002438E-1,1.0324569E-1,-1.1164011E-1,-1.0029441E0,-2.1868344E-1,7.162836E-1,8.046112E-3,5.3453732E-2,-4.756324E-2,7.107863E-2,5.053403E-2,-5.5280294E-2,-1.0067185E-1,-2.204008E-2,-9.646006E-2,1.0652129E-2,8.996526E-2,-1.434867E-2],"categories":[],"categories_nodes":[],"categories_segments":[],"categories_sizes":[],"default_left":[0,0,0,0,0,0,0,0,0,0,0,0,0,0,0,0,0,0,0,0,0,0,0,0,0,0,0],"id":35,"left_children":[1,3,5,7,9,11,13,15,17,-1,-1,19,21,23,25,-1,-1,-1,-1,-1,-1,-1,-1,-1,-1,-1,-1],"loss_changes":[4.1430807E2,1.2397298E2,1.8657593E1,4.9882957E1,3.842549E1,9.996216E0,3.3301353E0,5.0663677E1,1.7070374E1,0E0,0E0,4.174883E0,8.487854E-1,2.2323627E0,1.2123854E0,0E0,0E0,0E0,0E0,0E0,0E0,0E0,0E0,0E0,0E0,0E0,0E0],"parents":[2147483647,0,0,1,1,2,2,3,3,4,4,5,5,6,6,7,7,8,8,11,11,12,12,13,13,14,14],"right_children":[2,4,6,8,10,12,14,16,18,-1,-1,20,22,24,26,-1,-1,-1,-1,-1,-1,-1,-1,-1,-1,-1,-1],"split_conditions":[-4.3499598E-1,6.5863985E-1,-6.8024965E-4,1.8658984E0,-9.540723E-1,-7.696582E-1,-6.071944E-1,-7.696582E-1,9.4003624E-1,-1.002438E-1,1.0324569E-1,-5.222919E-1,2.587026E0,-5.378599E-1,1.0013549E0,8.046112E-3,5.3453732E-2,-4.756324E-2,7.107863E-2,5.053403E-2,-5.5280294E-2,-1.0067185E-1,-2.204008E-2,-9.646006E-2,1.0652129E-2,8.996526E-2,-1.434867E-2],"split_indices":[0,1,1,17,5,5,9,5,7,0,0,27,25,4,9,0,0,0,0,0,0,0,0,0,0,0,0],"split_type":[0,0,0,0,0,0,0,0,0,0,0,0,0,0,0,0,0,0,0,0,0,0,0,0,0,0,0],"sum_hessian":[2.3017588E3,1.9132897E3,3.884692E2,1.7101127E3,2.0317699E2,3.7481873E2,1.3650465E1,1.5343363E3,1.7577644E2,8.976292E0,1.9420068E2,1.3311866E1,3.6150687E2,7.779163E0,5.871302E0,1.2279893E3,3.06347E2,1.6355914E2,1.2217297E1,5.4893537E0,7.8225117E0,3.594865E2,2.020371E0,1.7649015E0,6.0142612E0,4.8009777E0,1.0703241E0],"tree_param":{"num_deleted":"0","num_feature":"30","num_nodes":"27","size_leaf_vector":"1"}},{"base_weights":[-2.360372E-3,1.5657498E-1,-1.0138152E-1,7.31607E-2,9.3006015E-1,4.3330055E-2,8.3538586E-1,-9.920786E-2,1.0289959E-1,7.1821357E-3,-7.461248E-2,-1.0013956E-1,1.0708829E-1],"categories":[],"categories_nodes":[],"categories_segments":[],"categories_sizes":[],"default_left":[0,0,0,0,0,0,0,0,0,0,0,0,0],"id":36,"left_children":[1,3,-1,5,7,9,11,-1,-1,-1,-1,-1,-1],"loss_changes":[3.6093704E2,1.2512366E2,0E0,3.9813072E1,3.692424E1,3.8012432E1,2.959991E1,0E0,0E0,0E0,0E0,0E0,0E0],"parents":[2147483647,0,0,1,1,3,3,4,4,5,5,6,6],"right_children":[2,4,-1,6,8,10,12,-1,-1,-1,-1,-1,-1],"split_conditions":[-4.1785595E-1,6.5863985E-1,-1.0138152E-1,1.3026613E0,-9.540723E-1,3.1563494E0,-9.540723E-1,-9.920786E-2,1.0289959E-1,7.1821357E-3,-7.461248E-2,-1.0013956E-1,1.0708829E-1],"split_indices":[0,1,0,3,5,17,5,0,0,0,0,0,0],"split_type":[0,0,0,0,0,0,0,0,0,0,0,0,0],"sum_hessian":[2.2432617E3,1.9393641E3,3.0389755E2,1.7515662E3,1.87798E2,1.6866151E3,6.495097E1,8.751184E0,1.7904681E2,1.628743E3,5.7872047E1,7.011542E0,5.7939434E1],"tree_param":{"num_deleted":"0","num_feature":"30","num_nodes":"13","size_leaf_vector":"1"}},{"base_weights":[-7.1030674E-3,1.5413009E-1,-9.1888905E-1,2.0076118E-2,4.4577768E-1,-4.0462157E-1,-1.0118319E-1,4.8332307E-2,-7.122727E-1,9.369566E-2,1.0228192E-1,-7.711403E-1,-7.981994E-2,-1.1258075E-3,3.8066596E-2,-9.851756E-2,2.4815423E-2,-1.9789537E-2,2.8135387E-2,-8.989002E-2,4.8576202E-2,-2.830542E-2,7.665505E-2],"categories":[],"categories_nodes":[],"categories_segments":[],"categories_sizes":[],"default_left":[0,0,0,0,0,0,0,0,0,0,0,0,0,0,0,0,0,0,0,0,0,0,0],"id":37,"left_children":[1,3,5,7,9,11,-1,13,15,17,-1,19,21,-1,-1,-1,-1,-1,-1,-1,-1,-1,-1],"loss_changes":[3.2080243E2,7.2488495E1,1.5263153E1,2.6344807E1,1.1852878E2,6.1116686E0,0E0,2.4266867E1,1.2641178E1,1.9958548E1,0E0,4.330412E0,5.1378727E0,0E0,0E0,0E0,0E0,0E0,0E0,0E0,0E0,0E0,0E0],"parents":[2147483647,0,0,1,1,2,2,3,3,4,4,5,5,7,7,8,8,9,9,11,11,12,12],"right_children":[2,4,6,8,10,12,-1,14,16,18,-1,20,22,-1,-1,-1,-1,-1,-1,-1,-1,-1,-1],"split_conditions":[-4.3499598E-1,-5.6917787E-1,-4.1785595E-1,3.1563494E0,-6.2282264E-1,-5.944043E-1,-1.0118319E-1,1.3327873E0,6.0145116E-1,-6.210573E-1,1.0228192E-1,1.117669E0,3.4283388E-1,-1.1258075E-3,3.8066596E-2,-9.851756E-2,2.4815423E-2,-1.9789537E-2,2.8135387E-2,-8.989002E-2,4.8576202E-2,-2.830542E-2,7.665505E-2],"split_indices":[0,2,0,17,3,28,0,25,3,11,0,15,2,0,0,0,0,0,0,0,0,0,0],"split_type":[0,0,0,0,0,0,0,0,0,0,0,0,0,0,0,0,0,0,0,0,0,0,0],"sum_hessian":[2.1802156E3,1.8533197E3,3.2689572E2,1.2704392E3,5.828805E2,5.0855812E1,2.7603992E2,1.2241422E3,4.6297028E1,3.6272568E2,2.2015483E2,2.3247852E1,2.760796E1,1.0388358E3,1.8530638E2,3.603267E1,1.02643585E1,1.4201006E2,2.2071562E2,2.136137E1,1.8864824E0,2.2798943E1,4.8090177E0],"tree_param":{"num_deleted":"0","num_feature":"30","num_nodes":"23","size_leaf_vector":"1"}},{"base_weights":[-1.7160991E-2,1.14600554E-1,-1.00996725E-1,3.685349E-2,9.0215826E-1,8.652173E-2,-4.1821086E-1,5.8838576E-1,1.0134188E-1,1.5104934E-2,-2.4587428E-2,2.0712873E-2,-5.9945237E-2,7.093824E-2,-3.304087E-2],"categories":[],"categories_nodes":[],"categories_segments":[],"categories_sizes":[],"default_left":[0,0,0,0,0,0,0,0,0,0,0,0,0,0,0],"id":38,"left_children":[1,3,-1,5,7,9,11,13,-1,-1,-1,-1,-1,-1,-1],"loss_changes":[2.7974426E2,1.155727E2,0E0,3.8899704E1,5.3244476E0,3.3305794E1,1.932063E1,5.4349384E0,0E0,0E0,0E0,0E0,0E0,0E0,0E0],"parents":[2147483647,0,0,1,1,3,3,4,4,5,5,6,6,7,7],"right_children":[2,4,-1,6,8,10,12,14,-1,-1,-1,-1,-1,-1,-1],"split_conditions":[-4.1785595E-1,6.0386217E-1,-1.00996725E-1,1.4285513E0,-6.2282264E-1,1.2475471E0,-6.4753246E-1,1.8226202E0,1.0134188E-1,1.5104934E-2,-2.4587428E-2,2.0712873E-2,-5.9945237E-2,7.093824E-2,-3.304087E-2],"split_indices":[0,1,0,9,3,6,0,10,0,0,0,0,0,0,0],"split_type":[0,0,0,0,0,0,0,0,0,0,0,0,0,0,0],"sum_hessian":[2.1366091E3,1.8870511E3,2.4955783E2,1.7184536E3,1.6859756E2,1.5500792E3,1.6837437E2,4.577976E1,1.2281781E2,1.2985408E3,2.5153847E2,3.7802197E1,1.3057217E2,4.065394E1,5.1258206E0],"tree_param":{"num_deleted":"0","num_feature":"30","num_nodes":"15","size_leaf_vector":"1"}},{"base_weights":[9.3712367E-4,1.2310635E-1,-1.0081752E-1,5.563269E-2,9.029333E-1,-1.3929579E-1,1.5556602E-1,-9.810087E-2,1.0203713E-1,-2.0865263E-2,3.6770765E-2,6.6061444E-3,4.076236E-2],"categories":[],"categories_nodes":[],"categories_segments":[],"categories_sizes":[],"default_left":[0,0,0,0,0,0,0,0,0,0,0,0,0],"id":39,"left_children":[1,3,-1,5,7,9,11,-1,-1,-1,-1,-1,-1],"loss_changes":[2.582669E2,9.82755E1,0E0,3.3545223E1,3.391008E1,2.0604843E1,2.56502E1,0E0,0E0,0E0,0E0,0E0,0E0],"parents":[2147483647,0,0,1,1,3,3,4,4,5,5,6,6],"right_children":[2,4,-1,6,8,10,12,-1,-1,-1,-1,-1,-1],"split_conditions":[-4.1785595E-1,6.5863985E-1,-1.0081752E-1,-7.415013E-1,-9.540723E-1,1.955669E0,-3.3240712E-1,-9.810087E-2,1.0203713E-1,-2.0865263E-2,3.6770765E-2,6.6061444E-3,4.076236E-2],"split_indices":[0,1,0,11,5,22,2,0,0,0,0,0,0],"split_type":[0,0,0,0,0,0,0,0,0,0,0,0,0],"sum_hessian":[2.092913E3,1.8676787E3,2.2523448E2,1.7199346E3,1.4774411E2,5.827796E2,1.137155E3,8.237913E0,1.395062E2,5.131679E2,6.961167E1,8.401008E2,2.9705417E2],"tree_param":{"num_deleted":"0","num_feature":"30","num_nodes":"13","size_leaf_vector":"1"}},{"base_weights":[6.23753E-3,1.1910343E-1,-1.0065373E-1,5.7806026E-2,8.986869E-1,1.2699288E-1,-2.1242537E-1,-9.6245036E-2,1.0172246E-1,1.4583034E-3,3.3026002E-2,4.722579E-3,-6.62741E-2],"categories":[],"categories_nodes":[],"categories_segments":[],"categories_sizes":[],"default_left":[0,0,0,0,0,0,0,0,0,0,0,0,0],"id":40,"left_children":[1,3,-1,5,7,9,11,-1,-1,-1,-1,-1,-1],"loss_changes":[2.3476077E2,8.82471E1,0E0,3.2075623E1,3.0680084E1,3.1192806E1,4.0930115E1,0E0,0E0,0E0,0E0,0E0,0E0],"parents":[2147483647,0,0,1,1,3,3,4,4,5,5,6,6],"right_children":[2,4,-1,6,8,10,12,-1,-1,-1,-1,-1,-1],"split_conditions":[-4.1785595E-1,6.5863985E-1,-1.0065373E-1,9.0593106E-1,-9.540723E-1,-6.2282264E-1,-5.172682E-1,-9.6245036E-2,1.0172246E-1,1.4583034E-3,3.3026002E-2,4.722579E-3,-6.62741E-2],"split_indices":[0,1,0,6,5,3,0,0,0,0,0,0,0],"split_type":[0,0,0,0,0,0,0,0,0,0,0,0,0],"sum_hessian":[2.051712E3,1.8467844E3,2.049274E2,1.7131559E3,1.3362857E2,1.364369E3,3.487869E2,7.575031E0,1.2605354E2,8.7921906E2,4.8514996E2,2.2179526E2,1.26991615E2],"tree_param":{"num_deleted":"0","num_feature":"30","num_nodes":"13","size_leaf_vector":"1"}},{"base_weights":[3.0233464E-4,1.02909215E-1,-1.0049863E-1,4.5858677E-2,9.00007E-1,1.0066121E-1,-3.1544393E-1,6.0164034E-1,1.0049379E-1,1.8763643E-2,-2.044454E-2,-3.8111277E-2,5.7044115E-2,7.113023E-2,-2.066232E-2],"categories":[],"categories_nodes":[],"categories_segments":[],"categories_sizes":[],"default_left":[0,0,0,0,0,0,0,0,0,0,0,0,0,0,0],"id":41,"left_children":[1,3,-1,5,7,9,11,13,-1,-1,-1,-1,-1,-1,-1],"loss_changes":[2.0857204E2,8.3394325E1,0E0,3.3954998E1,3.2304382E0,3.953517E1,1.3358295E1,3.1927328E0,0E0,0E0,0E0,0E0,0E0,0E0,0E0],"parents":[2147483647,0,0,1,1,3,3,4,4,5,5,6,6,7,7],"right_children":[2,4,-1,6,8,10,12,14,-1,-1,-1,-1,-1,-1,-1],"split_conditions":[-4.1785595E-1,6.5863985E-1,-1.0049863E-1,1.6065428E0,-6.2282264E-1,7.145828E-1,9.4003624E-1,1.8226202E0,1.0049379E-1,1.8763643E-2,-2.044454E-2,-3.8111277E-2,5.7044115E-2,7.113023E-2,-2.066232E-2],"split_indices":[0,1,0,17,3,9,7,10,0,0,0,0,0,0,0],"split_type":[0,0,0,0,0,0,0,0,0,0,0,0,0,0,0],"sum_hessian":[2.020033E3,1.8337637E3,1.8626926E2,1.7122693E3,1.214944E2,1.4873837E3,2.2488557E2,3.3362686E1,8.8131714E1,1.157738E3,3.2964557E2,2.0989621E2,1.498937E1,2.9482573E1,3.8801124E0],"tree_param":{"num_deleted":"0","num_feature":"30","num_nodes":"15","size_leaf_vector":"1"}},{"base_weights":[-2.2572807E-4,9.39069E-2,-1.0034528E-1,4.193458E-2,8.8713473E-1,1.7727511E-2,7.817272E-1,-9.422027E-2,1.01201475E-1,-2.141112E-4,9.671848E-2,-9.8871075E-2,1.053489E-1],"categories":[],"categories_nodes":[],"categories_segments":[],"categories_sizes":[],"default_left":[0,0,0,0,0,0,0,0,0,0,0,0,0],"id":42,"left_children":[1,3,-1,5,7,9,11,-1,-1,-1,-1,-1,-1],"loss_changes":[1.8711188E2,7.46391E1,0E0,3.0449047E1,2.6387733E1,3.109409E1,2.6962502E1,0E0,0E0,0E0,0E0,0E0,0E0],"parents":[2147483647,0,0,1,1,3,3,4,4,5,5,6,6],"right_children":[2,4,-1,6,8,10,12,-1,-1,-1,-1,-1,-1],"split_conditions":[-4.1785595E-1,6.5863985E-1,-1.0034528E-1,1.3026613E0,-9.540723E-1,3.8550022E0,-9.540723E-1,-9.422027E-2,1.01201475E-1,-2.141112E-4,9.671848E-2,-9.8871075E-2,1.053489E-1],"split_indices":[0,1,0,3,5,28,5,0,0,0,0,0,0],"split_type":[0,0,0,0,0,0,0,0,0,0,0,0,0],"sum_hessian":[1.9793555E3,1.8103931E3,1.689625E2,1.700058E3,1.1033501E2,1.6471837E3,5.287424E1,6.63248E0,1.0370253E2,1.6143982E3,3.2785625E1,6.6850696E0,4.618917E1],"tree_param":{"num_deleted":"0","num_feature":"30","num_nodes":"13","size_leaf_vector":"1"}},{"base_weights":[-1.873753E-2,-8.131811E-2,7.1769917E-1,-3.5099618E-2,-7.051485E-1,-1.0448085E-1,1.0141557E-1,2.9349757E-2,-2.7363634E-1,-1.0204533E0,9.686928E-2,-9.858921E-2,1.8541494E-1,-2.8962444E-3,3.8984373E-2,3.8933694E-2,-4.0008035E-2,-1.04963206E-1,6.8079226E-2,3.4033854E-2,-9.208958E-2],"categories":[],"categories_nodes":[],"categories_segments":[],"categories_sizes":[],"default_left":[0,0,0,0,0,0,0,0,0,0,0,0,0,0,0,0,0,0,0,0,0],"id":43,"left_children":[1,3,5,7,9,11,-1,13,15,17,-1,-1,19,-1,-1,-1,-1,-1,-1,-1,-1],"loss_changes":[8.985254E1,5.1777893E1,3.7325768E1,2.5740223E1,6.636778E1,1.0754883E1,0E0,2.7731106E1,3.001036E1,5.913353E0,0E0,0E0,5.794007E0,0E0,0E0,0E0,0E0,0E0,0E0,0E0,0E0],"parents":[2147483647,0,0,1,1,2,2,3,3,4,4,5,5,7,7,8,8,9,9,12,12],"right_children":[2,4,6,8,10,12,-1,14,16,18,-1,-1,20,-1,-1,-1,-1,-1,-1,-1,-1],"split_conditions":[5.239702E-1,-7.896447E-2,-9.42618E-1,9.0593106E-1,-4.650468E-1,-9.540723E-1,1.0141557E-1,1.7868818E0,-6.9030225E-1,-2.8015634E-1,9.686928E-2,-9.858921E-2,2.2122254E0,-2.8962444E-3,3.8984373E-2,3.8933694E-2,-4.0008035E-2,-1.04963206E-1,6.8079226E-2,3.4033854E-2,-9.208958E-2],"split_indices":[1,5,5,6,1,5,0,22,4,2,0,0,29,0,0,0,0,0,0,0,0],"split_type":[0,0,0,0,0,0,0,0,0,0,0,0,0,0,0,0,0,0,0,0,0],"sum_hessian":[1.9473778E3,1.7956753E3,1.517025E2,1.672797E3,1.2287832E2,4.0375195E1,1.113273E2,1.3176602E3,3.5513684E2,1.0372903E2,1.914929E1,9.398562E0,3.0976633E1,1.1349883E3,1.8267192E2,5.6550613E1,2.9858624E2,1.0235649E2,1.3725358E0,2.7778942E1,3.1976922E0],"tree_param":{"num_deleted":"0","num_feature":"30","num_nodes":"21","size_leaf_vector":"1"}},{"base_weights":[-1.2645655E-5,9.405744E-2,-8.574973E-1,5.091747E-2,8.723679E-1,-9.2700005E-1,1.7047226E-1,-9.387995E-2,1.8547128E-1,-9.144218E-2,1.0064363E-1,-9.579628E-1,-9.532675E-2,-1.7407928E-1,5.3983843E-1,6.6273264E-3,-2.1119915E-2,7.682876E-3,4.6233933E-2,-9.672336E-2,8.8575445E-3,7.313949E-2,-6.440213E-2,-4.3523826E-2,6.538192E-2,-1.942866E-2,8.383745E-2],"categories":[],"categories_nodes":[],"categories_segments":[],"categories_sizes":[],"default_left":[0,0,0,0,0,0,0,0,0,0,0,0,0,0,0,0,0,0,0,0,0,0,0,0,0,0,0],"id":44,"left_children":[1,3,5,7,9,11,13,15,17,-1,-1,19,21,23,25,-1,-1,-1,-1,-1,-1,-1,-1,-1,-1,-1,-1],"loss_changes":[1.5597507E2,5.8461884E1,1.3815735E1,3.2204197E1,2.282685E1,4.523468E0,1.7421606E0,1.4977493E1,2.5732082E1,0E0,0E0,1.7609253E0,3.8926153E0,1.8967843E0,1.586159E0,0E0,0E0,0E0,0E0,0E0,0E0,0E0,0E0,0E0,0E0,0E0,0E0],"parents":[2147483647,0,0,1,1,2,2,3,3,4,4,5,5,6,6,7,7,8,8,11,11,12,12,13,13,14,14],"right_children":[2,4,6,8,10,12,14,16,18,-1,-1,20,22,24,26,-1,-1,-1,-1,-1,-1,-1,-1,-1,-1,-1,-1],"split_conditions":[-4.3499598E-1,6.5863985E-1,-6.8024965E-4,-4.9769086E-1,-9.540723E-1,4.0442094E-1,-6.8886924E-1,-5.686883E-1,-3.3240712E-1,-9.144218E-2,1.0064363E-1,3.766714E0,1.2237291E-1,1.2484877E0,-9.9605125E-1,6.6273264E-3,-2.1119915E-2,7.682876E-3,4.6233933E-2,-9.672336E-2,8.8575445E-3,7.313949E-2,-6.440213E-2,-4.3523826E-2,6.538192E-2,-1.942866E-2,8.383745E-2],"split_indices":[0,1,1,25,5,3,25,0,2,0,0,21,27,17,15,0,0,0,0,0,0,0,0,0,0,0,0],"split_type":[0,0,0,0,0,0,0,0,0,0,0,0,0,0,0,0,0,0,0,0,0,0,0,0,0,0,0],"sum_hessian":[1.9316478E3,1.7414886E3,1.9015916E2,1.6510406E3,9.044798E1,1.782084E2,1.1950749E1,7.953947E2,8.5564594E2,5.9066606E0,8.454132E1,1.7166553E2,6.542875E0,6.4566116E0,5.4941382E0,3.3648788E2,4.589068E2,6.154299E2,2.402161E2,1.7023329E2,1.432238E0,2.4773152E0,4.0655594E0,5.268849E0,1.1877627E0,1.6892745E0,3.8048637E0],"tree_param":{"num_deleted":"0","num_feature":"30","num_nodes":"27","size_leaf_vector":"1"}},{"base_weights":[-8.291816E-3,6.54324E-2,-9.997264E-2,3.0444035E-2,8.031232E-1,-6.5235935E-2,2.1289608E-1,-1.0141543E-1,1.03038184E-1,2.0810729E-2,-1.5413389E-2,6.7183115E-3,1.0142725E-1],"categories":[],"categories_nodes":[],"categories_segments":[],"categories_sizes":[],"default_left":[0,0,0,0,0,0,0,0,0,0,0,0,0],"id":45,"left_children":[1,3,-1,5,7,9,11,-1,-1,-1,-1,-1,-1],"loss_changes":[1.3866371E2,4.5554283E1,0E0,2.9463316E1,3.4052734E1,2.6941547E1,6.772526E1,0E0,0E0,0E0,0E0,0E0,0E0],"parents":[2147483647,0,0,1,1,3,3,4,4,5,5,6,6],"right_children":[2,4,-1,6,8,10,12,-1,-1,-1,-1,-1,-1],"split_conditions":[-4.1785595E-1,1.1447581E0,-9.997264E-2,-6.2282264E-1,-9.540723E-1,-1.2512031E0,-5.6917787E-1,-1.0141543E-1,1.03038184E-1,2.0810729E-2,-1.5413389E-2,6.7183115E-3,1.0142725E-1],"split_indices":[0,2,0,3,5,23,2,0,0,0,0,0,0],"split_type":[0,0,0,0,0,0,0,0,0,0,0,0,0],"sum_hessian":[1.8951979E3,1.7648925E3,1.3030542E2,1.6859689E3,7.892352E1,1.1064015E3,5.795674E2,8.387799E0,7.053573E1,2.7119397E2,8.352076E2,4.91316E2,8.825136E1],"tree_param":{"num_deleted":"0","num_feature":"30","num_nodes":"13","size_leaf_vector":"1"}},{"base_weights":[1.927352E-2,-1.2692076E-2,7.929448E-1,1.715947E-2,-7.545526E-1,-9.997992E-2,1.0278267E-1,-9.545864E-2,1.3311511E-1,6.323306E-2,-9.841169E-2,5.9774597E-3,-2.023617E-2,-3.7114393E-2,1.8787766E-2,4.8105266E-2,-1.337605E-1],"categories":[],"categories_nodes":[],"categories_segments":[],"categories_sizes":[],"default_left":[0,0,0,0,0,0,0,0,0,0,0,0,0,0,0,0,0],"id":46,"left_children":[1,3,5,7,9,-1,-1,11,13,15,-1,-1,-1,-1,-1,-1,-1],"loss_changes":[4.622366E1,3.9775555E1,3.2254894E1,2.2565422E1,1.3105305E1,0E0,0E0,1.4560911E1,2.3578554E1,1.0106451E1,0E0,0E0,0E0,0E0,0E0,0E0,0E0],"parents":[2147483647,0,0,1,1,2,2,3,3,4,4,7,7,8,8,9,9],"right_children":[2,4,6,8,10,-1,-1,12,14,16,-1,-1,-1,-1,-1,-1,-1],"split_conditions":[1.1447581E0,3.8656998E-1,-9.540723E-1,-2.3172393E-1,-7.295682E-1,-9.997992E-2,1.0278267E-1,-4.196356E-1,-1.492931E0,2.7329078E-1,-9.841169E-2,5.9774597E-3,-2.023617E-2,-3.7114393E-2,1.8787766E-2,4.8105266E-2,-1.337605E-1],"split_indices":[2,4,5,25,5,0,0,6,10,2,0,0,0,0,0,0,0],"split_type":[0,0,0,0,0,0,0,0,0,0,0,0,0,0,0,0,0],"sum_hessian":[1.8676609E3,1.7945016E3,7.315941E1,1.7260253E3,6.847624E1,8.097599E0,6.5061806E1,8.757037E2,8.503216E2,1.5167832E1,5.330841E1,3.573047E2,5.18399E2,8.273275E1,7.6758887E2,1.2188914E1,2.978918E0],"tree_param":{"num_deleted":"0","num_feature":"30","num_nodes":"17","size_leaf_vector":"1"}},{"base_weights":[-4.099343E-3,6.1719082E-2,-9.978234E-2,2.4570541E-2,8.587182E-1,9.939155E-2,-1.7570697E-1,-8.963224E-2,1.0029476E-1,3.9047522E-3,3.8315576E-2,3.0200223E-3,-4.116355E-2],"categories":[],"categories_nodes":[],"categories_segments":[],"categories_sizes":[],"default_left":[0,0,0,0,0,0,0,0,0,0,0,0,0],"id":47,"left_children":[1,3,-1,5,7,9,11,-1,-1,-1,-1,-1,-1],"loss_changes":[1.208621E2,5.1293224E1,0E0,2.4847624E1,2.0429451E1,2.065261E1,2.1923275E1,0E0,0E0,0E0,0E0,0E0,0E0],"parents":[2147483647,0,0,1,1,3,3,4,4,5,5,6,6],"right_children":[2,4,-1,6,8,10,12,-1,-1,-1,-1,-1,-1],"split_conditions":[-4.1785595E-1,6.5863985E-1,-9.978234E-2,6.09606E-1,-9.540723E-1,1.4801897E0,-5.344082E-1,-8.963224E-2,1.0029476E-1,3.9047522E-3,3.8315576E-2,3.0200223E-3,-4.116355E-2],"split_indices":[0,1,0,6,5,22,0,0,0,0,0,0,0],"split_type":[0,0,0,0,0,0,0,0,0,0,0,0,0],"sum_hessian":[1.8459515E3,1.7321613E3,1.13790276E2,1.6560049E3,7.615642E1,1.2059731E3,4.5003177E2,5.3872795E0,7.0769135E1,9.9542755E2,2.105456E2,2.4077061E2,2.0926114E2],"tree_param":{"num_deleted":"0","num_feature":"30","num_nodes":"13","size_leaf_vector":"1"}},{"base_weights":[9.897866E-3,-2.2511778E-2,8.366332E-1,2.2528505E-1,-9.93633E-2,-8.962435E-2,9.989256E-2,1.10361524E-1,6.0535645E-1,-1.2503682E-1,8.5432E-1,-4.2548683E-2,1.9192334E-2,8.136629E-2,-1.9734317E-2,-9.061958E-3,-6.989231E-2,-8.448087E-2,1.0436517E-1],"categories":[],"categories_nodes":[],"categories_segments":[],"categories_sizes":[],"default_left":[0,0,0,0,0,0,0,0,0,0,0,0,0,0,0,0,0,0,0],"id":48,"left_children":[1,3,5,7,9,-1,-1,11,13,15,17,-1,-1,-1,-1,-1,-1,-1,-1],"loss_changes":[4.9383656E1,3.380269E1,2.0448303E1,1.8287804E1,3.327411E1,0E0,0E0,1.4236576E1,1.6436333E1,2.6008562E1,1.2346659E1,0E0,0E0,0E0,0E0,0E0,0E0,0E0,0E0],"parents":[2147483647,0,0,1,1,2,2,3,3,4,4,7,7,8,8,9,9,10,10],"right_children":[2,4,6,8,10,-1,-1,12,14,16,18,-1,-1,-1,-1,-1,-1,-1,-1],"split_conditions":[6.5863985E-1,-1.1727397E0,-9.540723E-1,1.8569934E0,1.3026613E0,-8.962435E-2,9.989256E-2,-9.334546E-1,1.3513175E0,4.6518575E-3,-9.540723E-1,-4.2548683E-2,1.9192334E-2,8.136629E-2,-1.9734317E-2,-9.061958E-3,-6.989231E-2,-8.448087E-2,1.0436517E-1],"split_indices":[1,23,5,22,3,0,0,5,29,5,5,0,0,0,0,0,0,0,0],"split_type":[0,0,0,0,0,0,0,0,0,0,0,0,0,0,0,0,0,0,0],"sum_hessian":[1.8413699E3,1.7728436E3,6.852617E1,4.192145E2,1.3536292E3,5.4809475E0,6.3045223E1,3.228758E2,9.633872E1,1.3189904E3,3.463883E1,4.209585E1,2.8077994E2,7.647837E1,1.9860352E1,1.2454554E3,7.3534836E1,3.1256955E0,3.1513132E1],"tree_param":{"num_deleted":"0","num_feature":"30","num_nodes":"19","size_leaf_vector":"1"}},{"base_weights":[-7.043438E-3,5.018486E-2,-9.957869E-2,1.9547774E-2,8.427415E-1,7.101385E-2,-2.5819522E-1,-8.725195E-2,9.970275E-2,5.6878926E-4,4.275418E-2,-1.6818384E-2,-8.895311E-2],"categories":[],"categories_nodes":[],"categories_segments":[],"categories_sizes":[],"default_left":[0,0,0,0,0,0,0,0,0,0,0,0,0],"id":49,"left_children":[1,3,-1,5,7,9,11,-1,-1,-1,-1,-1,-1],"loss_changes":[1.0334212E2,4.1906666E1,0E0,2.3794178E1,1.7868702E1,3.269887E1,1.4639402E1,0E0,0E0,0E0,0E0,0E0,0E0],"parents":[2147483647,0,0,1,1,3,3,4,4,5,5,6,6],"right_children":[2,4,-1,6,8,10,12,-1,-1,-1,-1,-1,-1],"split_conditions":[-4.1785595E-1,6.5863985E-1,-9.957869E-2,1.4316556E0,-9.540723E-1,-7.4674964E-1,-6.5167904E-1,-8.725195E-2,9.970275E-2,5.6878926E-4,4.275418E-2,-1.6818384E-2,-8.895311E-2],"split_indices":[0,1,0,17,5,5,5,0,0,0,0,0,0],"split_type":[0,0,0,0,0,0,0,0,0,0,0,0,0],"sum_hessian":[1.8244622E3,1.7255376E3,9.892456E1,1.6623042E3,6.32334E1,1.4030599E3,2.592442E2,4.834218E0,5.839918E1,1.1866484E3,2.1641147E2,2.280035E2,3.1240728E1],"tree_param":{"num_deleted":"0","num_feature":"30","num_nodes":"13","size_leaf_vector":"1"}},{"base_weights":[-1.02921E-3,-5.249177E-2,4.7379437E-1,-2.963483E-2,-8.473037E-1,1.3143234E-1,1.0348221E-1,2.6180489E-2,-3.150924E-1,-9.6106553E-1,4.6858844E-1,-9.70281E-2,2.0814091E-1,1.4109464E-2,-1.9770486E-2,2.088071E-2,-4.0921934E-2,1.4422581E-2,-1.0206516E-1,9.984133E-2,-4.7278196E-2,-8.2188257E-4,5.405845E-2],"categories":[],"categories_nodes":[],"categories_segments":[],"categories_sizes":[],"default_left":[0,0,0,0,0,0,0,0,0,0,0,0,0,0,0,0,0,0,0,0,0,0,0],"id":50,"left_children":[1,3,5,7,9,11,-1,13,15,17,19,-1,21,-1,-1,-1,-1,-1,-1,-1,-1,-1,-1],"loss_changes":[4.3633953E1,2.9242607E1,3.3402275E1,2.4975782E1,7.1865387E0,9.462919E0,0E0,3.3774136E1,1.2727688E1,2.8965607E0,2.5932128E0,0E0,7.4326215E0,0E0,0E0,0E0,0E0,0E0,0E0,0E0,0E0,0E0,0E0],"parents":[2147483647,0,0,1,1,2,2,3,3,4,4,5,5,7,7,8,8,9,9,10,10,12,12],"right_children":[2,4,6,8,10,12,-1,14,16,18,20,-1,22,-1,-1,-1,-1,-1,-1,-1,-1,-1,-1],"split_conditions":[9.318494E-1,4.5458764E-1,-9.02528E-1,1.3973105E0,1.8711473E-1,-9.540723E-1,1.0348221E-1,2.0847857E-1,-7.919356E-1,-1.092236E0,-2.2598247E-1,-9.70281E-2,-2.240511E-1,1.4109464E-2,-1.9770486E-2,2.088071E-2,-4.0921934E-2,1.4422581E-2,-1.0206516E-1,9.984133E-2,-4.7278196E-2,-8.2188257E-4,5.405845E-2],"split_indices":[3,4,5,17,3,5,0,9,22,27,11,0,14,0,0,0,0,0,0,0,0,0,0],"split_type":[0,0,0,0,0,0,0,0,0,0,0,0,0,0,0,0,0,0,0,0,0,0,0],"sum_hessian":[1.7836511E3,1.6100404E3,1.7361073E2,1.566042E3,4.3998436E1,1.0858313E2,6.5027596E1,1.3106749E3,2.5536705E2,4.0745537E1,3.2528973E0,6.309866E0,1.0227326E2,8.66364E2,4.4431088E2,3.870746E1,2.1665959E2,2.0115633E0,3.8733974E1,2.042651E0,1.2102462E0,6.2543926E1,3.9729336E1],"tree_param":{"num_deleted":"0","num_feature":"30","num_nodes":"23","size_leaf_vector":"1"}},{"base_weights":[-1.2287095E-2,3.7884235E-2,-9.935854E-2,1.1431049E-2,7.517363E-1,-1.6907541E-1,1.03689365E-1,-9.814291E-2,1.0249982E-1,-2.4120262E-2,2.7172793E-2,2.3540089E-2,-1.1979808E-2],"categories":[],"categories_nodes":[],"categories_segments":[],"categories_sizes":[],"default_left":[0,0,0,0,0,0,0,0,0,0,0,0,0],"id":51,"left_children":[1,3,-1,5,7,9,11,-1,-1,-1,-1,-1,-1],"loss_changes":[8.74499E1,3.190635E1,0E0,2.7174047E1,2.960051E1,1.7613894E1,3.1812057E1,0E0,0E0,0E0,0E0,0E0,0E0],"parents":[2147483647,0,0,1,1,3,3,4,4,5,5,6,6],"right_children":[2,4,-1,6,8,10,12,-1,-1,-1,-1,-1,-1],"split_conditions":[-4.1785595E-1,1.1447581E0,-9.935854E-2,-7.247839E-1,-9.540723E-1,1.6470498E0,4.6078652E-1,-9.814291E-2,1.0249982E-1,-2.4120262E-2,2.7172793E-2,2.3540089E-2,-1.1979808E-2],"split_indices":[0,2,0,11,5,22,17,0,0,0,0,0,0],"split_type":[0,0,0,0,0,0,0,0,0,0,0,0,0],"sum_hessian":[1.7744797E3,1.6890825E3,8.539718E1,1.6297065E3,5.937596E1,5.5094055E2,1.078766E3,7.7336574E0,5.1642303E1,4.7385757E2,7.708296E1,6.7871466E2,4.0005136E2],"tree_param":{"num_deleted":"0","num_feature":"30","num_nodes":"13","size_leaf_vector":"1"}},{"base_weights":[-5.088905E-3,-3.1683095E-2,8.246316E-1,3.5101544E-2,-2.306937E-1,-8.608013E-2,9.928092E-2,-5.828705E-3,4.4524822E-1,-1.3742346E-1,-5.6743264E-1,1.9804686E-3,-6.516087E-2,9.198117E-4,8.442068E-2,-3.0559598E-2,5.0703064E-3,-6.842587E-2,2.4037587E-2],"categories":[],"categories_nodes":[],"categories_segments":[],"categories_sizes":[],"default_left":[0,0,0,0,0,0,0,0,0,0,0,0,0,0,0,0,0,0,0],"id":52,"left_children":[1,3,5,7,9,-1,-1,11,13,15,17,-1,-1,-1,-1,-1,-1,-1,-1],"loss_changes":[3.9245434E1,2.29102E1,1.6511501E1,2.1676004E1,1.352459E1,0E0,0E0,1.9461485E1,2.0374363E1,1.07873745E1,8.999708E0,0E0,0E0,0E0,0E0,0E0,0E0,0E0,0E0],"parents":[2147483647,0,0,1,1,2,2,3,3,4,4,7,7,8,8,9,9,10,10],"right_children":[2,4,6,8,10,-1,-1,12,14,16,18,-1,-1,-1,-1,-1,-1,-1,-1],"split_conditions":[6.5863985E-1,3.918168E-1,-9.540723E-1,7.6160127E-1,7.969398E-1,-8.608013E-2,9.928092E-2,-7.896447E-2,-9.094006E-1,-3.7584522E-1,6.550648E-1,1.9804686E-3,-6.516087E-2,9.198117E-4,8.442068E-2,-3.0559598E-2,5.0703064E-3,-6.842587E-2,2.4037587E-2],"split_indices":[1,24,5,2,23,0,0,5,5,1,3,0,0,0,0,0,0,0,0],"split_type":[0,0,0,0,0,0,0,0,0,0,0,0,0,0,0,0,0,0,0],"sum_hessian":[1.7763844E3,1.722148E3,5.4236446E1,1.2900516E3,4.3209622E2,4.5471997E0,4.9689247E1,1.17389E3,1.16161606E2,3.3947598E2,9.262024E1,1.1300054E3,4.388475E1,5.5989628E1,6.0171978E1,1.7891423E2,1.6056175E2,8.1051445E1,1.1568796E1],"tree_param":{"num_deleted":"0","num_feature":"30","num_nodes":"19","size_leaf_vector":"1"}},{"base_weights":[-1.0508335E-2,-4.236773E-2,6.359255E-1,2.0498902E-1,-1.1898612E-1,-9.330383E-2,7.866569E-1,-1.1934838E-3,3.49402E-1,-1.3884641E-1,8.0716515E-1,2.68527E-1,9.946132E-2,-6.727612E-3,7.65181E-2,3.9111156E-2,-6.0321268E-2,-1.114908E-2,-6.65325E-2,-8.09225E-2,1.0236975E-1,5.569101E-2,-4.114432E-2],"categories":[],"categories_nodes":[],"categories_segments":[],"categories_sizes":[],"default_left":[0,0,0,0,0,0,0,0,0,0,0,0,0,0,0,0,0,0,0,0,0,0,0],"id":53,"left_children":[1,3,5,7,9,-1,11,13,15,17,19,21,-1,-1,-1,-1,-1,-1,-1,-1,-1,-1,-1],"loss_changes":[3.6582493E1,3.210154E1,2.046519E1,1.1929768E1,2.3893139E1,0E0,7.9931793E0,8.459654E0,9.597805E0,1.8167679E1,1.0379736E1,4.8032784E0,0E0,0E0,0E0,0E0,0E0,0E0,0E0,0E0,0E0,0E0,0E0],"parents":[2147483647,0,0,1,1,2,2,3,3,4,4,6,6,7,7,8,8,9,9,10,10,11,11],"right_children":[2,4,6,8,10,-1,12,14,16,18,20,22,-1,-1,-1,-1,-1,-1,-1,-1,-1,-1,-1],"split_conditions":[5.5161977E-1,-1.1727397E0,-9.540723E-1,-2.9605868E-1,1.3026613E0,-9.330383E-2,-9.42618E-1,4.1250806E0,2.8471413E0,2.2378772E-1,-9.540723E-1,3.594303E-2,9.946132E-2,-6.727612E-3,7.65181E-2,3.9111156E-2,-6.0321268E-2,-1.114908E-2,-6.65325E-2,-8.09225E-2,1.0236975E-1,5.569101E-2,-4.114432E-2],"split_indices":[1,23,5,11,3,0,5,22,6,4,5,9,0,0,0,0,0,0,0,0,0,0,0],"split_type":[0,0,0,0,0,0,0,0,0,0,0,0,0,0,0,0,0,0,0,0,0,0,0],"sum_hessian":[1.773973E3,1.6915402E3,8.2432846E1,3.9964398E2,1.2918962E3,6.7703357E0,7.566251E1,1.6502496E2,2.3461903E2,1.2656067E3,2.6289463E1,2.2326523E1,5.333599E1,1.5276465E2,1.2260315E1,2.2534203E2,9.277003E0,1.2042463E3,6.13604E1,2.7823474E0,2.3507116E1,1.5804593E1,6.521929E0],"tree_param":{"num_deleted":"0","num_feature":"30","num_nodes":"23","size_leaf_vector":"1"}},{"base_weights":[-2.4337352E-3,4.1289564E-2,-9.91067E-2,1.9520719E-2,8.2199484E-1,-6.066119E-3,5.190164E-1,-8.192472E-2,9.864846E-2,2.959781E-3,-3.7939705E-2,7.1109235E-2,-8.833556E-3],"categories":[],"categories_nodes":[],"categories_segments":[],"categories_sizes":[],"default_left":[0,0,0,0,0,0,0,0,0,0,0,0,0],"id":54,"left_children":[1,3,-1,5,7,9,11,-1,-1,-1,-1,-1,-1],"loss_changes":[7.579015E1,2.8520828E1,0E0,2.0894213E1,1.3098625E1,2.0727688E1,9.356281E0,0E0,0E0,0E0,0E0,0E0,0E0],"parents":[2147483647,0,0,1,1,3,3,4,4,5,5,6,6],"right_children":[2,4,-1,6,8,10,12,-1,-1,-1,-1,-1,-1],"split_conditions":[-4.1785595E-1,6.5863985E-1,-9.91067E-2,2.7437036E0,-9.540723E-1,1.6126324E0,1.4610716E0,-8.192472E-2,9.864846E-2,2.959781E-3,-3.7939705E-2,7.1109235E-2,-8.833556E-3],"split_indices":[0,1,0,25,5,9,17,0,0,0,0,0,0],"split_type":[0,0,0,0,0,0,0,0,0,0,0,0,0],"sum_hessian":[1.7513871E3,1.6781284E3,7.3258675E1,1.6336027E3,4.452566E1,1.5549384E3,7.86644E1,3.6933815E0,4.083228E1,1.4201897E3,1.3474858E2,5.963419E1,1.9030212E1],"tree_param":{"num_deleted":"0","num_feature":"30","num_nodes":"13","size_leaf_vector":"1"}},{"base_weights":[-2.5681288E-3,-2.238452E-2,8.1728137E-1,-1.0539257E-1,-1.0966549E-2,-7.992655E-2,9.8269366E-2,-3.042217E-2,1.01622604E-1,-1.0824541E-3,-6.616744E-2],"categories":[],"categories_nodes":[],"categories_segments":[],"categories_sizes":[],"default_left":[0,0,0,0,0,0,0,0,0,0,0],"id":55,"left_children":[1,3,5,-1,7,-1,-1,9,-1,-1,-1],"loss_changes":[2.8273447E1,2.0000462E1,1.1767778E1,0E0,3.3635056E1,0E0,0E0,2.0420038E1,0E0,0E0,0E0],"parents":[2147483647,0,0,1,1,2,2,4,4,7,7],"right_children":[2,4,6,-1,8,-1,-1,10,-1,-1,-1],"split_conditions":[6.5863985E-1,-9.540723E-1,-9.540723E-1,-1.0539257E-1,1.1447581E0,-7.992655E-2,9.8269366E-2,6.994132E-2,1.01622604E-1,-1.0824541E-3,-6.616744E-2],"split_indices":[1,5,5,0,2,0,0,5,0,0,0],"split_type":[0,0,0,0,0,0,0,0,0,0,0],"sum_hessian":[1.7381576E3,1.6980863E3,4.0071354E1,1.7590525E1,1.6804957E3,3.36396E0,3.6707394E1,1.6502102E3,3.0285551E1,1.6015074E3,4.8702675E1],"tree_param":{"num_deleted":"0","num_feature":"30","num_nodes":"11","size_leaf_vector":"1"}},{"base_weights":[-4.8623336E-3,3.3767454E-2,-9.888159E-2,-6.721399E-2,1.8045527E-1,-1.1695214E-1,3.847896E-1,-5.313016E-1,2.3085426E-1,1.8422788E-2,-1.6989201E-2,-1.8111123E-2,5.817631E-2,-9.0031475E-2,5.020779E-2,8.852536E-3,4.518561E-2],"categories":[],"categories_nodes":[],"categories_segments":[],"categories_sizes":[],"default_left":[0,0,0,0,0,0,0,0,0,0,0,0,0,0,0,0,0],"id":56,"left_children":[1,3,-1,5,7,9,11,13,15,-1,-1,-1,-1,-1,-1,-1,-1],"loss_changes":[6.591676E1,2.4731766E1,0E0,2.2282196E1,2.454024E1,1.4251075E1,1.106099E1,1.7731941E1,1.9977139E1,0E0,0E0,0E0,0E0,0E0,0E0,0E0,0E0],"parents":[2147483647,0,0,1,1,3,3,4,4,5,5,6,6,7,7,8,8],"right_children":[2,4,-1,6,8,10,12,14,16,-1,-1,-1,-1,-1,-1,-1,-1],"split_conditions":[-4.1785595E-1,-4.7519508E-1,-9.888159E-2,1.9979174E0,-1.492931E0,-7.229487E-1,-6.4783907E-1,-2.4784425E-2,-3.1917867E-1,1.8422788E-2,-1.6989201E-2,-1.8111123E-2,5.817631E-2,-9.0031475E-2,5.020779E-2,8.852536E-3,4.518561E-2],"split_indices":[0,7,0,28,10,0,14,1,3,0,0,0,0,0,0,0,0],"split_type":[0,0,0,0,0,0,0,0,0,0,0,0,0,0,0,0,0],"sum_hessian":[1.7323206E3,1.6678085E3,6.451209E1,9.8811884E2,6.796897E2,8.908334E2,9.728542E1,4.431478E1,6.3537494E2,1.328062E2,7.580272E2,2.5139801E1,7.2145615E1,3.274907E1,1.1565713E1,3.8732907E2,2.4804585E2],"tree_param":{"num_deleted":"0","num_feature":"30","num_nodes":"17","size_leaf_vector":"1"}},{"base_weights":[3.6803857E-4,3.5289697E-2,-9.867451E-2,-1.0365664E-1,4.8073642E-2,2.6601624E-2,1.0219926E-1,9.2847564E-4,9.760507E-2],"categories":[],"categories_nodes":[],"categories_segments":[],"categories_sizes":[],"default_left":[0,0,0,0,0,0,0,0,0],"id":57,"left_children":[1,3,-1,-1,5,7,-1,-1,-1],"loss_changes":[5.9588703E1,2.2926983E1,0E0,0E0,3.4495037E1,2.6564465E1,0E0,0E0,0E0],"parents":[2147483647,0,0,1,1,4,4,5,5],"right_children":[2,4,-1,-1,6,8,-1,-1,-1],"split_conditions":[-4.1785595E-1,-9.540723E-1,-9.867451E-2,-1.0365664E-1,1.3026613E0,6.0386217E-1,1.0219926E-1,9.2847564E-4,9.760507E-2],"split_indices":[0,5,0,0,3,1,0,0,0],"split_type":[0,0,0,0,0,0,0,0,0],"sum_hessian":[1.7266201E3,1.6685549E3,5.8065163E1,1.8722275E1,1.6498328E3,1.6152485E3,3.4584114E1,1.5873077E3,2.79409E1],"tree_param":{"num_deleted":"0","num_feature":"30","num_nodes":"9","size_leaf_vector":"1"}},{"base_weights":[-5.250099E-3,2.6492449E-2,-9.8486446E-2,-2.6709286E-2,3.0700028E-1,2.975866E-1,-6.821142E-2,-1.3330186E-2,9.8509175E-1,-3.0545896E-2,4.873686E-2,-1.5147569E-2,2.2377918E-2,-9.648995E-2,2.2463467E-2,3.518611E-2,1.0221819E-1],"categories":[],"categories_nodes":[],"categories_segments":[],"categories_sizes":[],"default_left":[0,0,0,0,0,0,0,0,0,0,0,0,0,0,0,0,0],"id":58,"left_children":[1,3,-1,5,7,9,11,13,15,-1,-1,-1,-1,-1,-1,-1,-1],"loss_changes":[5.3651558E1,2.49512E1,0E0,1.8941574E1,5.790959E1,1.8424831E1,3.0355314E1,4.1431587E1,1.6491394E0,0E0,0E0,0E0,0E0,0E0,0E0,0E0,0E0],"parents":[2147483647,0,0,1,1,3,3,4,4,5,5,6,6,7,7,8,8],"right_children":[2,4,-1,6,8,10,12,14,16,-1,-1,-1,-1,-1,-1,-1,-1],"split_conditions":[-4.1785595E-1,-7.4674964E-1,-9.8486446E-2,-7.298047E-1,-7.874899E-2,-9.080965E-1,1.2585045E0,-1.492931E0,-7.295682E-1,-3.0545896E-2,4.873686E-2,-1.5147569E-2,2.2377918E-2,-9.648995E-2,2.2463467E-2,3.518611E-2,1.0221819E-1],"split_indices":[0,5,0,0,1,6,22,10,5,0,0,0,0,0,0,0,0],"split_type":[0,0,0,0,0,0,0,0,0,0,0,0,0,0,0,0,0],"sum_hessian":[1.7235435E3,1.6703906E3,5.315288E1,1.4048486E3,2.6554193E2,1.5868904E2,1.2461597E3,1.8101212E2,8.45298E1,3.7840065E1,1.20848976E2,9.7002716E2,2.7613245E2,3.5600143E1,1.4541197E2,5.2574353E0,7.927236E1],"tree_param":{"num_deleted":"0","num_feature":"30","num_nodes":"17","size_leaf_vector":"1"}},{"base_weights":[3.4022373E-3,3.2929216E-2,-9.8271884E-2,-1.0240296E-1,4.4880655E-2,2.4220075E-2,1.009671E-1,8.523703E-4,1.0173261E-1],"categories":[],"categories_nodes":[],"categories_segments":[],"categories_sizes":[],"default_left":[0,0,0,0,0,0,0,0,0],"id":59,"left_children":[1,3,-1,-1,5,7,-1,-1,-1],"loss_changes":[4.9335346E1,2.0825922E1,0E0,0E0,3.241806E1,2.4846174E1,0E0,0E0,0E0],"parents":[2147483647,0,0,1,1,4,4,5,5],"right_children":[2,4,-1,-1,6,8,-1,-1,-1],"split_conditions":[-4.1785595E-1,-9.540723E-1,-9.8271884E-2,-1.0240296E-1,1.1447581E0,1.3026613E0,1.009671E-1,8.523703E-4,1.0173261E-1],"split_indices":[0,5,0,0,2,3,0,0,0],"split_type":[0,0,0,0,0,0,0,0,0],"sum_hessian":[1.6922614E3,1.6440023E3,4.8259014E1,1.7434687E1,1.6265676E3,1.5934694E3,3.309837E1,1.5696687E3,2.3800558E1],"tree_param":{"num_deleted":"0","num_feature":"30","num_nodes":"9","size_leaf_vector":"1"}},{"base_weights":[9.315537E-3,-5.3608837E-3,8.0834913E-1,2.8911771E-2,-2.8517145E-1,4.8705563E-1,9.539025E-2,-1.0879731E-1,1.1280327E-1,-4.6196544E-1,3.215715E-1,6.6314423E-1,-1.9012295E-2,-2.3376641E-3,-3.2927524E-2,5.3953123E-3,3.7785448E-2,-6.014305E-2,2.0471027E-3,6.3896105E-2,-3.1126305E-2,2.3012945E-2,7.181034E-2,-2.4978518E-2,2.8331546E-2],"categories":[],"categories_nodes":[],"categories_segments":[],"categories_sizes":[],"default_left":[0,0,0,0,0,0,0,0,0,0,0,0,0,0,0,0,0,0,0,0,0,0,0,0,0],"id":60,"left_children":[1,3,5,7,9,11,-1,13,15,17,19,21,23,-1,-1,-1,-1,-1,-1,-1,-1,-1,-1,-1,-1],"loss_changes":[1.9712154E1,1.58433895E1,9.532223E-1,1.7017328E1,1.9486362E1,1.037029E0,0E0,1.04966545E1,1.4255385E1,9.432518E0,8.487379E0,3.836441E-2,3.4562972E-1,0E0,0E0,0E0,0E0,0E0,0E0,0E0,0E0,0E0,0E0,0E0,0E0],"parents":[2147483647,0,0,1,1,2,2,3,3,4,4,5,5,7,7,8,8,9,9,10,10,11,11,12,12],"right_children":[2,4,6,8,10,12,-1,14,16,18,20,22,24,-1,-1,-1,-1,-1,-1,-1,-1,-1,-1,-1,-1],"split_conditions":[6.5863985E-1,1.8193839E0,-6.2282264E-1,-4.7505465E-1,-5.1607555E-1,6.290475E-1,9.539025E-2,7.145828E-1,3.8919595E-1,8.077989E-1,-4.6507594E-1,-1.165445E0,-7.0296776E-1,-2.3376641E-3,-3.2927524E-2,5.3953123E-3,3.7785448E-2,-6.014305E-2,2.0471027E-3,6.3896105E-2,-3.1126305E-2,2.3012945E-2,7.181034E-2,-2.4978518E-2,2.8331546E-2],"split_indices":[1,29,3,11,12,10,0,9,2,28,4,14,13,0,0,0,0,0,0,0,0,0,0,0,0],"split_type":[0,0,0,0,0,0,0,0,0,0,0,0,0,0,0,0,0,0,0,0,0,0,0,0,0],"sum_hessian":[1.6795577E3,1.6502399E3,2.9317846E1,1.4709651E3,1.792748E2,1.0495779E1,1.8822067E1,5.56752E2,9.1421313E2,1.3900876E2,4.026604E1,7.5561852E0,2.9395943E0,4.0207895E2,1.5467307E2,7.4909314E2,1.6511996E2,1.076439E2,3.136486E1,2.6810114E1,1.3455928E1,1.4352618E0,6.120923E0,1.7656393E0,1.173955E0],"tree_param":{"num_deleted":"0","num_feature":"30","num_nodes":"25","size_leaf_vector":"1"}},{"base_weights":[-7.54938E-4,2.5721058E-2,-9.8011844E-2,4.354983E-3,5.3915685E-1,-3.6305907E-1,3.1107107E-2,-1.5618294E-1,1.0039158E0,-1.00640036E-1,-3.900136E-3,-1.6906882E-3,3.479876E-2,-4.368299E-2,6.380551E-2,1.0420728E-1,3.5665195E-2],"categories":[],"categories_nodes":[],"categories_segments":[],"categories_sizes":[],"default_left":[0,0,0,0,0,0,0,0,0,0,0,0,0,0,0,0,0],"id":61,"left_children":[1,3,-1,5,7,9,11,13,15,-1,-1,-1,-1,-1,-1,-1,-1],"loss_changes":[4.359828E1,1.7957668E1,0E0,1.5470299E1,2.1291607E1,2.223131E1,2.2325151E1,6.311674E0,5.997963E-1,0E0,0E0,0E0,0E0,0E0,0E0,0E0,0E0],"parents":[2147483647,0,0,1,1,3,3,4,4,5,5,6,6,7,7,8,8],"right_children":[2,4,-1,6,8,10,12,14,16,-1,-1,-1,-1,-1,-1,-1,-1],"split_conditions":[-4.1785595E-1,1.1617701E0,-9.8011844E-2,-1.492931E0,-9.42618E-1,-1.0513047E0,-7.4674964E-1,1.4910228E0,2.0897107E0,-1.00640036E-1,-3.900136E-3,-1.6906882E-3,3.479876E-2,-4.368299E-2,6.380551E-2,1.0420728E-1,3.5665195E-2],"split_indices":[0,3,0,10,5,6,5,11,28,0,0,0,0,0,0,0,0],"split_type":[0,0,0,0,0,0,0,0,0,0,0,0,0,0,0,0,0],"sum_hessian":[1.6794362E3,1.6361776E3,4.32585E1,1.5717783E3,6.439937E1,1.0582365E2,1.4659546E3,2.6065678E1,3.8333694E1,3.474329E1,7.108035E1,1.2738817E3,1.9207294E2,1.9592571E1,6.473105E0,3.562367E1,2.7100239E0],"tree_param":{"num_deleted":"0","num_feature":"30","num_nodes":"17","size_leaf_vector":"1"}},{"base_weights":[9.672679E-3,-4.686413E-3,7.7032673E-1,1.875449E-1,-6.527708E-2,-8.328855E-2,1.0070225E-1,4.3804076E-2,4.9993065E-1,-7.932807E-2,8.0560064E-1,-6.470868E-4,1.183176E-1,-2.442813E-2,6.88965E-2,-1.3104381E-2,1.3685654E-2,-6.80528E-2,9.896864E-2],"categories":[],"categories_nodes":[],"categories_segments":[],"categories_sizes":[],"default_left":[0,0,0,0,0,0,0,0,0,0,0,0,0,0,0,0,0,0,0],"id":62,"left_children":[1,3,5,7,9,-1,-1,11,13,15,17,-1,-1,-1,-1,-1,-1,-1,-1],"loss_changes":[1.8181067E1,1.9048914E1,1.2541904E1,1.7577976E1,1.5279675E1,0E0,0E0,1.544707E1,1.7531612E1,1.3709373E1,6.0994186E0,0E0,0E0,0E0,0E0,0E0,0E0,0E0,0E0],"parents":[2147483647,0,0,1,1,2,2,3,3,4,4,7,7,8,8,9,9,10,10],"right_children":[2,4,6,8,10,-1,-1,12,14,16,18,-1,-1,-1,-1,-1,-1,-1,-1],"split_conditions":[1.2909946E0,-1.2512031E0,-9.540723E-1,1.2585045E0,1.3026613E0,-8.328855E-2,1.0070225E-1,3.766714E0,-4.3188325E-1,8.7941813E-1,-9.540723E-1,-6.470868E-4,1.183176E-1,-2.442813E-2,6.88965E-2,-1.3104381E-2,1.3685654E-2,-6.80528E-2,9.896864E-2],"split_indices":[2,23,5,22,3,0,0,21,28,25,5,0,0,0,0,0,0,0,0],"split_type":[0,0,0,0,0,0,0,0,0,0,0,0,0,0,0,0,0,0,0],"sum_hessian":[1.6632513E3,1.6334108E3,2.9840542E1,3.9095688E2,1.242454E3,3.5148175E0,2.6325724E1,2.6853412E2,1.2242276E2,1.2236206E3,1.8833338E1,2.5813806E2,1.0396057E1,2.473823E1,9.768453E1,9.877295E2,2.3589108E2,1.7785183E0,1.705482E1],"tree_param":{"num_deleted":"0","num_feature":"30","num_nodes":"19","size_leaf_vector":"1"}},{"base_weights":[-5.406122E-5,2.4285564E-2,-9.77551E-2,-1.0046213E-1,3.4491576E-2,1.7584888E-2,9.999502E-2,4.8753945E-4,9.62214E-2],"categories":[],"categories_nodes":[],"categories_segments":[],"categories_sizes":[],"default_left":[0,0,0,0,0,0,0,0,0],"id":63,"left_children":[1,3,-1,-1,5,7,-1,-1,-1],"loss_changes":[3.9352764E1,1.6981823E1,0E0,0E0,2.6081984E1,1.8874031E1,0E0,0E0,0E0],"parents":[2147483647,0,0,1,1,4,4,5,5],"right_children":[2,4,-1,-1,6,8,-1,-1,-1],"split_conditions":[-4.1785595E-1,-9.540723E-1,-9.77551E-2,-1.0046213E-1,1.1447581E0,6.0386217E-1,9.999502E-2,4.8753945E-4,9.62214E-2],"split_indices":[0,5,0,0,2,1,0,0,0],"split_type":[0,0,0,0,0,0,0,0,0],"sum_hessian":[1.6520421E3,1.6128572E3,3.9184914E1,1.4884259E1,1.5979729E3,1.5714723E3,2.6500717E1,1.5516014E3,1.987083E1],"tree_param":{"num_deleted":"0","num_feature":"30","num_nodes":"9","size_leaf_vector":"1"}},{"base_weights":[6.119127E-3,2.7981205E-2,-9.74744E-2,-9.918148E-2,3.6992084E-2,2.2211287E-2,9.89426E-2,1.05744E-3,9.931541E-2],"categories":[],"categories_nodes":[],"categories_segments":[],"categories_sizes":[],"default_left":[0,0,0,0,0,0,0,0,0],"id":64,"left_children":[1,3,-1,-1,5,7,-1,-1,-1],"loss_changes":[3.5827053E1,1.5052403E1,0E0,0E0,2.279384E1,1.8033133E1,0E0,0E0,0E0],"parents":[2147483647,0,0,1,1,4,4,5,5],"right_children":[2,4,-1,-1,6,8,-1,-1,-1],"split_conditions":[-4.1785595E-1,-9.540723E-1,-9.74744E-2,-9.918148E-2,1.1447581E0,1.3026613E0,9.89426E-2,1.05744E-3,9.931541E-2],"split_indices":[0,5,0,0,2,3,0,0,0],"split_type":[0,0,0,0,0,0,0,0,0],"sum_hessian":[1.6684772E3,1.6330503E3,3.5426952E1,1.3347906E1,1.6197024E3,1.595958E3,2.3744314E1,1.5780558E3,1.790233E1],"tree_param":{"num_deleted":"0","num_feature":"30","num_nodes":"9","size_leaf_vector":"1"}},{"base_weights":[1.3303202E-4,2.0084739E-2,-9.718799E-2,8.945508E-3,7.8792906E-1,-1.02667734E-1,7.92151E-2,-6.825959E-2,9.591182E-2,-1.1810401E-3,-5.244674E-2,9.577895E-4,2.9491102E-2],"categories":[],"categories_nodes":[],"categories_segments":[],"categories_sizes":[],"default_left":[0,0,0,0,0,0,0,0,0,0,0,0,0],"id":65,"left_children":[1,3,-1,5,7,9,11,-1,-1,-1,-1,-1,-1],"loss_changes":[3.2011036E1,1.3827025E1,0E0,1.252009E1,6.4741373E0,2.3630722E1,1.4710124E1,0E0,0E0,0E0,0E0,0E0,0E0],"parents":[2147483647,0,0,1,1,3,3,4,4,5,5,6,6],"right_children":[2,4,-1,6,8,10,12,-1,-1,-1,-1,-1,-1],"split_conditions":[-4.1785595E-1,6.5863985E-1,-9.718799E-2,-4.6581307E-1,-9.540723E-1,1.3482019E0,1.2585045E0,-6.825959E-2,9.591182E-2,-1.1810401E-3,-5.244674E-2,9.577895E-4,2.9491102E-2],"split_indices":[0,1,0,28,5,6,22,0,0,0,0,0,0],"split_type":[0,0,0,0,0,0,0,0,0,0,0,0,0],"sum_hessian":[1.6486156E3,1.616416E3,3.21995E1,1.594299E3,2.211708E1,6.157719E2,9.785271E2,1.9947432E0,2.0122337E1,5.074855E2,1.0828641E2,7.405014E2,2.3802571E2],"tree_param":{"num_deleted":"0","num_feature":"30","num_nodes":"13","size_leaf_vector":"1"}},{"base_weights":[-2.218475E-2,-7.611902E-2,1.4580627E-1,-1.083886E-1,2.9651222E-1,-1.3717898E-2,1.00696266E-1,-1.2939712E-1,4.285992E-1,4.0863344E-1,-3.4104666E-1,-7.9171754E-2,4.6231183E-1,-5.1036168E-2,-9.967216E-3,-3.1205136E-2,6.45588E-2,